label,x_0,x_1,x_2,x_3,x_4,x_5,x_6,x_7,x_8,x_9,x_10,x_11,x_12,x_13,x_14,x_15,x_16,x_17,x_18,x_19,x_20,x_21,x_22,x_23,x_24,x_25,x_26,x_27,x_28,x_29,x_30,x_31,x_32,x_33,x_34,x_35,x_36,x_37,x_38,x_39,x_40,x_41,x_42,x_43,x_44,x_45,x_46,x_47,x_48,x_49,x_50,x_51,x_52,x_53,x_54,x_55,x_56,x_57,x_58,x_59,x_60,x_61,x_62,x_63,x_64,x_65,x_66,x_67,x_68,x_69,x_70,x_71,x_72,x_73,x_74,x_75,x_76,x_77,x_78,x_79,x_80,x_81,x_82,x_83,x_84,x_85,x_86,x_87,x_88,x_89,x_90,x_91,x_92,x_93,x_94,x_95,x_96,x_97,x_98,x_99,x_100,x_101,x_102,x_103,x_104,x_105,x_106,x_107,x_108,x_109,x_110,x_111,x_112,x_113,x_114,x_115,x_116,x_117,x_118,x_119,x_120,x_121,x_122,x_123,x_124,x_125,x_126,x_127
hsa-let-7a-2-3p,-0.14322227,0.45243853,0.47583562,0.18857107,0.3742875,0.1923662,-0.3931124,-0.04382164,-0.20403355,-0.92291474,-0.07857931,-0.08050443,0.5375939,0.14672433,0.04400655,-0.18348764,-0.10655631,0.13764559,-0.5398432,0.27555573,0.33918568,-0.5553696,-0.05945149,0.019191405,0.08220057,-0.5043654,0.21648763,0.36036888,0.47974056,0.013667163,0.23737876,-0.15303655,-0.38684738,-0.06599239,-0.39369434,0.13899454,0.15729326,0.2630403,0.3048148,0.3293548,-0.3550503,-0.014439426,0.38873345,0.13707401,-0.09766966,-0.33919695,0.6130175,-0.2931394,0.5445341,0.43902832,-0.3200698,0.14072585,-0.14797458,-0.30164847,-0.25208738,-0.27772018,0.38427418,0.13965903,0.3077017,-0.010403534,-0.30388686,-0.3751956,0.21268971,-0.1085458,0.11226754,-0.52208537,-0.39731297,-0.19448543,0.29130927,0.19359794,-0.46129075,0.011221727,-0.15314558,0.35820526,-0.040175077,-0.5556095,0.19793701,0.48977217,-0.12520689,0.13375819,-0.2274243,0.2946078,-0.28550184,-0.6651099,0.2710823,0.016913854,0.124390334,-0.002073072,-0.39246944,-0.7840245,0.003658932,-0.13482371,-0.6309537,0.06359698,0.5592969,0.5385849,-0.25197428,-0.4250678,-0.24792743,-0.42885783,0.17036255,0.17750393,0.04679554,0.021113044,0.48187086,0.7048567,0.81783706,0.015125039,0.26338923,-0.5995219,-0.08693185,-0.17541282,0.04322607,-0.078006044,0.58444566,-0.24382833,0.03342977,0.18038282,0.17036498,-0.03351485,0.14256948,-0.5916629,0.020866366,-0.6087223,-0.4377373,-0.4734663,0.53933644,-0.6910343
hsa-let-7a-3p,-0.15432568,0.12513137,0.109222025,0.069682606,0.33099544,-0.033142276,0.4328877,0.20911123,0.19186154,0.014739949,-0.01410238,0.012323255,-0.31842673,-0.013588003,0.041329045,-0.08767906,-0.32087183,0.18507972,0.07666253,0.006447777,-0.24058303,-0.28812402,0.11940466,0.3727593,0.1529996,-0.08911791,0.14463905,0.09611887,0.13350089,-0.3034271,0.39794385,0.14432982,-0.343882,-0.072698794,0.12830159,-0.19398426,-0.015838608,0.45270106,-0.4424331,0.20399529,0.3297526,-0.14614436,-0.1545981,0.3170122,-0.07055106,-0.36334231,0.387769,0.46881866,0.13354062,0.17535937,-0.16148087,0.11810231,0.49633637,0.3604494,0.18318945,0.18536167,0.123237625,0.11981947,0.33672875,-0.20431039,0.20113422,-0.51030225,0.15463044,0.022526577,0.1714301,0.07301773,-0.285753,0.029113702,0.04990854,0.7169124,0.17088926,0.003768802,0.14929773,0.20422947,-0.004507157,-0.2642616,0.20096886,0.26044208,0.4330879,-0.009420917,-0.12494969,0.102188446,-0.09528748,0.21151833,0.24227116,-0.30476853,0.13241987,-0.27503395,-0.24602199,-0.48190892,0.21663097,-0.27000645,-0.17811365,-0.16904125,-0.26068112,0.11494911,-0.10150777,-0.0663258,-0.14008383,0.15981312,-0.2232113,-0.19394083,-0.07429868,0.34978554,-0.1140006,-0.094557025,0.3185082,-0.2946936,-0.17571582,-0.4516288,-0.2485025,-0.8260519,-0.04261499,-0.41487604,0.14559835,-0.32539874,0.32100213,0.20995158,0.18422419,-0.07587041,-0.28143123,-0.16337124,0.23332475,-0.5833987,-0.38232216,0.23628642,-0.102386065,-0.17789942
hsa-let-7a-5p,0.36069754,0.57367474,0.41681048,0.20123202,0.703639,-0.2554523,-0.13015063,0.015398575,0.4140192,0.22477207,-0.44258162,0.2564805,-0.110147566,0.118967995,0.4146129,-0.046160433,-0.23057108,0.19078246,0.19703275,0.28058347,0.059710253,0.60346836,0.34643498,0.32607704,0.107244626,0.11869113,-0.37966606,0.13660829,0.32541794,-0.42762253,-0.3210019,0.10689996,0.39608207,0.22935057,0.25740746,0.3330528,0.003201458,-0.055242825,-0.04384846,0.20611878,0.17207038,0.244151,0.1831779,-0.11199932,0.27925807,-0.34188837,0.29573047,0.29583594,-0.03340313,0.03734516,0.12550713,0.29308036,0.4929589,-0.06919297,-0.08888158,-0.33467117,-0.20066345,0.43653363,0.06900534,0.20143348,0.15399729,0.18741198,-0.16706721,-0.30780002,-0.020370856,-0.26848745,0.07269061,0.20089372,-0.05695136,-0.1565775,0.05083293,-0.09329573,-0.073426075,-0.051162,-0.36987117,-0.14640118,0.23057464,-0.06059639,-0.049502045,0.004816142,-0.30138943,0.006387624,-0.06419845,-0.47788355,-0.3899466,0.06676981,-0.025209075,0.63756686,0.19768636,-0.15257806,0.3104663,0.19407965,0.2896201,-0.3392916,0.10717038,-0.17605923,0.052756757,-0.37771207,-0.14623573,-0.11814606,0.6541617,0.32152656,-0.8358331,0.14852694,0.06882643,0.01578556,0.650731,0.09230798,-0.16392782,-0.26460195,0.5498175,-0.10513043,-0.22158158,-0.36579806,-0.27577254,-0.3080447,0.13345368,0.14324228,0.28828937,0.09534525,0.009547088,-0.3673597,0.32049322,-0.27364197,-0.22008005,0.3014795,-0.2651939,0.55955327
hsa-let-7b-3p,-0.3557729,0.36203417,0.2025146,0.004572651,0.023683395,-0.05314502,0.12365342,0.089441635,0.20649858,0.26782534,-0.3246242,-0.31610474,0.13268623,0.073334984,0.06749529,-0.054461665,-0.10214568,-0.045017883,-0.13710304,-0.09674026,0.017291429,0.098575816,0.2925595,0.22886778,-0.41315582,-0.14508039,0.31165072,-0.00426801,0.14864339,-0.046909317,0.044332877,0.024911761,-0.13001046,0.01420984,-0.00696001,0.1695827,0.33770964,0.12844753,-0.29213694,0.34884652,0.54592407,0.3664675,-0.39009735,-0.0921804,-0.18774766,-0.105870575,0.45463023,0.41438478,0.27114508,0.33278605,-0.27714765,0.2857576,-0.08417595,0.32881638,-0.096526265,0.22067143,0.27124187,0.4051819,0.12169632,0.16475731,0.037381683,0.01397601,0.018293742,0.22325778,0.115466505,0.20134206,-0.16223156,-0.022151478,-0.3081015,-0.26268253,0.11409694,0.2754293,0.006219414,-0.30943805,-0.20144671,-0.03274091,0.38795054,0.27990788,-0.43273374,-0.08200387,-0.22762047,0.17969602,0.02716444,-0.25789577,0.06570815,0.13747801,0.411674,0.09796151,-0.1807058,-0.4639473,-0.117006585,-0.2036862,-0.2106738,0.066910505,-0.11452967,0.14334115,0.083854236,-0.030578304,-0.5259274,-0.03436137,0.28637254,0.06845687,-0.5440231,0.48348904,0.004697566,0.10152332,0.3229307,0.22745796,0.0460568,0.089175574,-0.042618174,-0.3007507,-0.067974955,0.034862872,0.03974899,-0.5070351,0.05274055,-0.13587871,-0.10346739,-0.478713,-0.046905268,-0.16351385,0.39202493,-0.3343613,0.03675822,0.24465337,-0.08409167,-0.1944077
hsa-let-7b-5p,-0.31308976,0.49688166,-0.016229808,0.41735923,0.3003455,0.05763892,0.26665244,0.06548076,-0.16678596,-0.21968448,-0.3865075,-0.14345102,0.1771552,-0.15594459,0.03471043,-0.002067894,0.033407785,0.15383616,-0.031875744,0.6650426,0.27974164,-0.1089453,0.21934639,0.69302344,0.05395171,-0.21797188,0.039320003,0.58475083,0.40464935,-0.27100232,0.12369107,-0.30654362,-0.090756,-0.08725587,0.041638087,0.46944755,0.00749141,0.038464155,-0.002252114,0.31359023,0.67098665,0.54774,-0.38717127,0.5005134,-0.06627374,-0.4641573,0.50636506,0.14749558,0.29186025,0.016797388,-0.033812754,-0.14465146,0.003697986,-0.11432224,0.2597585,-0.34220013,0.1518845,0.051953062,0.15549995,-0.19004714,0.00942767,0.24570023,0.09992582,0.0994632,-0.29757828,-0.10997918,-0.11420275,-0.090460576,0.18462875,0.21694717,0.026206719,0.26455897,-0.08432316,0.2865929,0.015429734,0.044535987,-0.019178422,0.20308423,0.08018974,-0.16260785,0.33273965,0.091210656,0.12392317,0.23474096,-0.051827654,0.19150873,0.046120428,0.27901742,-0.49654663,-0.3237641,-0.4042806,-0.25341034,0.051311914,-0.14270203,-0.07974822,0.3053396,-0.055148397,0.12689812,-0.30434248,0.15340738,0.15580368,-0.016794402,-0.41354063,0.09032041,-0.030772114,-0.16370258,0.38488993,0.46557203,-0.0918049,-0.004648486,0.4819753,-0.2458659,-0.23276825,0.09836134,-0.30705705,0.053168725,0.33014378,-0.19710766,-0.17553236,-0.49551395,0.24861902,-0.44892186,0.35369542,-0.31724203,-0.34429395,0.32603714,0.24211353,0.11937332
hsa-let-7c-3p,0.31791508,-0.0666625,0.047109943,0.3448444,0.1680797,-0.04013865,0.4376883,-0.21557583,0.105328925,-0.14151138,-0.35153452,-0.21908699,-0.14576305,0.15137987,0.01981342,0.097975485,0.46089152,0.2717678,-0.39906147,0.36808485,-0.09516277,0.21073723,0.047249142,0.59693855,-0.2842758,0.27730143,0.29604805,0.053437144,-0.033696532,-0.020573208,0.28613073,-0.16676052,-0.26268926,-0.14728084,-0.507348,-0.3087258,-0.15299444,-0.08922577,0.21657841,-0.17704612,0.06881399,0.12879193,-0.15606767,0.18677899,-0.18214351,-0.10590677,0.29315722,0.55441433,0.16311644,0.09296175,-0.13546222,0.62378836,-0.23391937,0.110183686,0.19205096,0.27809784,0.45092162,-0.005031324,0.17770512,0.09897603,0.027756829,0.15111837,-0.086371645,0.0298936,0.25599894,-0.20846128,-0.045438595,-0.044459194,0.13831441,0.323625,0.10155984,-0.15383032,0.22163895,0.22864704,-0.067219175,-0.019040402,0.24694623,0.27309567,0.12543039,-0.31166166,-0.291023,-0.07339866,-0.18886144,-0.23569286,-0.18923855,-0.22822638,0.08537713,0.42665467,-0.45026833,-0.1335697,-0.08756258,-0.20756474,0.19846912,0.4007386,0.5396272,0.32464585,0.07520697,0.12352677,-0.32004032,0.18754719,-0.12882023,0.24374115,-0.24819788,0.37491181,0.25441444,-0.23696391,0.22610551,0.18304202,-0.28396973,-0.39137846,-0.13336383,-0.45196024,0.047681984,-0.10526443,0.26172143,-0.19250979,0.18778418,-0.05501892,0.07702978,-0.41745144,-0.2552505,-0.37048537,0.42918825,-0.10171775,0.08807092,0.57170415,0.2600223,0.08383397
hsa-let-7c-5p,-0.08379459,0.1281505,0.28025848,0.44913664,0.16285156,-0.11690121,-0.08217741,0.1874495,0.13117789,0.17670412,-0.002780059,0.19331679,0.32200697,0.21216728,0.026734104,0.4018285,0.022060191,0.29962602,0.3291292,-0.15380618,-0.05791261,0.36284107,0.21577764,0.2116701,0.064453855,0.39079136,0.35238162,0.13652228,0.5509351,0.21528506,-0.100460015,-0.39594597,0.7109584,-0.18374152,-0.006658354,-0.36107782,0.18119769,-0.12292503,-0.33671603,-0.28253686,0.31174627,0.3264945,-0.21853963,0.24228078,-0.30477792,0.32225186,0.6191074,0.091383554,0.27585328,0.20959638,0.08846636,-0.055171605,-0.30829734,-0.1789091,0.08593823,0.009186078,0.06415341,0.09556763,-0.14469168,0.41429532,-0.11396715,0.51581234,-0.08504209,0.14711823,0.24033672,-0.19276364,-0.28573233,-0.23181687,0.26914555,-0.09172558,0.49782872,-0.022870308,0.31253132,-0.21088924,-0.024437819,-0.4167527,0.06282847,0.5513543,-0.5573644,-0.27487743,0.19689249,0.09209603,-0.10139059,-0.27775964,0.027655689,0.27765882,0.33892605,-0.111738384,-0.52793074,-0.037620086,0.35585415,-0.638478,-0.045602467,-0.004102326,0.30700436,0.15002361,0.08117147,0.15174851,0.23352149,0.12285638,-0.0976966,-0.064095095,-0.16992491,0.7237681,-0.78086656,-0.57545173,-0.14682546,0.20642608,0.030784737,-0.36160776,0.21225765,0.054735087,0.30778253,0.038601667,0.13890819,0.16187482,-0.119551204,0.1491764,-0.14174426,0.09832761,-0.7994677,-0.39845312,0.09038707,-0.16862288,-0.24459954,0.27269447,-0.30421472,0.045719143
hsa-let-7d-3p,-0.11180888,-0.29890755,0.20614338,0.13972454,0.83935064,-0.16171989,-0.19716482,0.26028112,0.25992024,0.010863,0.06464254,0.25742137,-0.035017118,0.09536198,-0.12930356,0.11106409,0.39972562,0.15737963,0.08665724,0.29096815,0.016004322,0.37101683,-0.20240414,0.3520883,-0.17599474,0.17599793,-0.10808867,0.23627569,0.22566527,-0.049742416,0.14440885,0.07794562,-0.042153474,-0.29811454,-0.38410583,-0.15841553,0.24331078,0.2739411,-0.15017876,0.23088142,0.36227193,0.1018352,-0.06593467,0.063716315,-0.22315599,-0.15542349,0.010422282,0.23732178,0.1777326,0.27313775,-0.22257198,0.56232697,-0.047964018,0.028176982,0.2957473,-0.26705697,0.27334568,0.3473966,-0.26722723,0.5020839,0.022589272,-0.1460033,-0.146889,-0.24022648,0.021155525,-0.20453215,-0.017369915,0.33054352,-0.4928416,0.21327657,-0.059856985,-0.060281105,-0.23406003,-0.1788924,-0.5016447,-0.021870185,0.12515992,0.004858368,-0.18007909,-0.1552051,-0.28060558,0.24621241,-0.36687616,-0.10339053,-0.07728545,-0.040016793,0.5609423,0.35558504,-0.3642592,-0.5588214,-0.13566653,-0.5274471,-0.111288115,-0.2088063,0.15631366,0.28704095,-0.057557028,0.23951258,-0.23284589,-0.16693003,0.19598022,0.39343333,0.0770605,0.19095223,0.27691075,-0.20661165,0.19800921,0.2584845,0.3705294,0.004730985,0.4525082,-0.18778028,0.20196241,-0.14836769,0.12062129,-0.14910343,-0.16415676,0.007556584,-0.17179763,0.41895655,0.001171638,-0.5071989,0.47301984,0.06723372,-0.13597333,0.13506578,0.105089284,0.2917533
hsa-let-7d-5p,0.007467208,0.042206857,-0.23037076,0.31441784,0.09810928,-0.10057097,0.5006207,0.08098752,0.405251,0.010998883,0.090423815,-0.14745235,-0.13339055,0.05764071,0.051016323,0.20851018,0.30499047,0.30389807,-0.1129117,-0.29776004,-0.07537969,-0.042441748,0.5310598,0.40034163,-0.2640873,-0.03074444,-0.11417034,0.28323382,0.14295897,-0.3358714,0.15860036,-0.25232106,0.1906526,-0.28648373,0.052256092,0.22605494,0.2779021,0.400155,-0.2527888,0.07109556,0.43532825,0.13520005,-0.30844796,0.41182014,0.20053014,-0.71365607,0.8476861,0.5413469,0.017981775,0.15052915,-0.34634218,0.50972176,0.047128126,0.18650667,0.21991517,-0.10038508,0.43267843,0.019490883,0.14064889,0.31378406,-0.020161575,0.16421917,0.15266597,0.021636512,-0.13759589,0.10610591,-0.03546842,-0.07104691,-0.28381178,-0.06390306,0.16381799,-0.26686504,0.11210971,-0.03526223,0.09741261,-0.15093552,0.27992192,0.62680084,-0.109276004,0.52802944,-0.4755877,0.23637196,-0.28097355,-0.69692785,-0.01437784,-0.0902074,0.17986771,0.08546976,-0.07362545,-0.31964236,0.34818467,-0.19903965,-0.61963195,0.08321983,0.1673444,-0.07306976,-0.031634565,0.41907904,-0.31173754,-0.18123412,0.43303558,0.56198055,-0.29788604,0.06494038,0.33002543,-0.09751126,0.56019837,-0.45256212,-0.41259205,-0.019153824,0.21062432,-0.6092686,-0.2996112,-0.09813691,-0.36623406,0.043751888,0.030642495,0.07736512,0.30980998,-0.6954836,-0.18125749,-0.23309295,0.1628895,-0.1377636,-0.3462638,0.15936802,0.14543681,-0.23662591
hsa-let-7e-3p,-0.17653169,-0.03190366,0.3564447,0.050418347,0.27349016,0.30344573,0.38317272,0.112589486,-0.08634472,0.06947202,-0.53361744,-0.01493796,0.03189427,-0.21113475,0.13704659,0.15624225,0.18683854,0.002571195,0.23457433,0.3615521,-0.098634034,-0.37607262,0.023208965,0.22028166,0.45715937,0.24054912,0.4032971,0.21100768,0.091457784,-0.32583183,0.014814409,-0.040068407,0.048148073,0.03730024,-0.11707815,0.30513397,0.5584842,0.2173354,-0.4965817,0.2926329,0.73152703,0.1796934,0.08577304,0.16012636,0.43880957,-0.19885048,0.51648265,0.23196886,0.4033984,0.23937762,0.032968488,0.14399731,0.005882119,0.36234272,0.36308762,-0.023649901,0.55996734,0.1708531,-0.3465275,-0.19569188,-0.69444805,0.13854699,0.261777,0.013837194,-0.11651127,-0.4255547,-0.17647038,0.17895666,0.11389228,0.090483256,-0.19238433,-0.47641355,0.003668201,0.3502219,-0.3167892,-0.2101149,0.048741788,0.6429011,0.030077787,0.23877208,-0.23486936,0.37698436,-0.32789728,-0.073608495,-0.27759513,0.20976716,0.3560175,0.054896142,-0.45511457,-0.6334356,0.30263957,0.16012898,0.13950552,0.040177822,-0.15116851,0.14051722,-0.19381925,-0.14748059,-0.4167725,-0.381005,0.33645323,0.2200698,-0.48467982,0.1809661,0.17682913,0.04376696,0.50454336,0.40981546,-0.06628035,-0.025800427,0.21957669,-0.24546215,-0.12249094,-0.5121511,-0.103118435,-0.2895927,0.14578699,-0.43580744,-0.22578304,-0.12591812,0.03233763,-0.5098063,0.26997304,-0.3461313,-0.4214509,0.12947246,-0.007925971,-0.030796746
hsa-let-7e-5p,-0.025737746,0.05387561,0.4110132,0.36424178,-0.094781056,0.25142464,-0.031129062,0.04460775,0.025554115,-0.23962721,0.2988004,0.055416476,0.14126255,0.105691195,-0.079760164,-0.22999458,0.29004523,0.08502902,-0.07306428,-0.042892437,-0.5148048,-0.011019873,-0.10707276,0.09081207,0.23229289,0.54793733,0.42487696,0.030675033,-0.0750756,0.12725216,-0.17215511,-0.5312712,0.3174549,-0.15465045,-0.07513475,-0.15296003,0.40392792,0.2691439,-0.27409694,0.10259946,-0.08623958,0.10309289,-0.022200571,-0.41622385,-0.2537739,-0.32042596,0.36370534,0.5471236,0.09623736,0.40737894,-0.11312971,0.32842088,0.20000605,0.3425582,0.14363904,-0.39138776,-0.21520124,-0.035691112,0.16558121,-0.06765992,-0.179529,0.14577273,0.10128116,-0.025146868,-0.16454509,0.14727692,-0.21997958,0.095498174,-0.2584643,-0.022770774,-0.15866888,0.20676088,-0.14097449,0.17768064,0.22032498,-0.012643887,0.06618201,0.4423245,-0.020526592,0.3282997,0.037613206,0.06603348,-0.7428191,-0.18651597,-0.056635406,-0.014717783,0.40058365,0.19010198,-0.60196376,0.07043914,0.30765834,-0.2089388,-0.05771787,0.11845439,0.05290562,0.14093575,0.14103472,0.22054286,0.023949856,-0.08364899,0.29482356,0.15920362,-0.25340557,-0.21184768,0.17978486,0.047217075,0.17314482,0.66192085,0.018705215,-0.2859531,0.034769554,-0.002044705,-0.3875589,-0.33005625,0.09181789,-0.09592348,-0.16382161,-0.2539282,-0.20892763,0.1519433,-0.58115757,0.10021938,-0.06604423,-0.56678796,0.04796047,0.37180278,0.13133356,-0.41306207
hsa-let-7f-1-3p,-0.5119657,0.120401576,0.4766196,0.18509042,0.78441745,0.3521807,0.57445115,0.49775958,0.12980004,-0.72921383,-0.19483814,-0.26404485,0.4356277,-0.056290932,0.1782326,0.29559258,-0.6315892,0.22625872,0.04041788,0.4087814,0.3950549,-0.2125673,0.06428408,0.2463239,-0.3058751,-0.4183251,0.6519716,0.1103381,0.4550733,0.38787505,-0.052675597,-0.04731689,0.49384892,-0.1813989,0.39919594,0.025888968,0.09999966,-0.1873674,-0.090533316,0.30476478,0.25323057,0.22399007,-0.122782245,0.43186808,0.46885228,-0.08207111,0.44189385,0.5748387,-0.4952941,-0.069823526,-0.3370343,-0.11213087,0.117284946,0.12319541,0.51524156,-0.018486695,0.19330113,0.32836083,0.3195889,-0.21030125,0.29999167,0.52858466,-0.091548726,-0.38951144,-0.5930223,-0.5613308,-0.005795438,-0.06660735,0.10538289,0.63784057,-0.1670148,0.01143646,-0.40868077,0.30961233,-0.2252575,-0.15134732,0.21060689,0.049412563,-0.2971263,-0.13645634,-0.41170812,0.10826976,-0.54709405,-0.8071206,-0.48849866,-0.24545315,0.2584167,-0.0548721,-0.6677617,-0.9275403,0.19081956,0.0906422,-0.07358246,-0.21722692,0.13351032,0.3348645,-0.4055906,0.23430716,-0.19903031,-0.03448443,0.39769703,0.035382923,-0.12388546,0.0763953,0.34925675,0.056101643,0.4670615,-0.34233826,-0.008252784,-0.2564652,0.12882277,-0.25690687,-0.33560595,-0.17789283,-0.45676056,0.21707225,0.30801755,-0.5579188,0.09497371,-0.14051847,-0.13311963,0.18100536,-0.18007228,-0.60941464,-0.34926838,0.61973304,0.32554638,-0.19360213
hsa-let-7f-2-3p,0.044624444,0.48988092,0.21956488,0.15879594,0.08528595,0.30551603,-0.2634562,0.06393141,-0.0333768,-0.20836216,-0.2173692,-0.26735687,-0.11591333,0.13075562,-0.2111467,0.016266897,-0.14194207,-0.15618664,0.17109504,-0.1578453,0.15389475,-0.14447343,0.2035394,-0.1554721,-0.21829748,0.05575385,0.14914075,0.29638064,-0.36951,-0.23672503,-0.07209932,-0.37096706,0.38477173,0.54471856,0.03583679,-0.36591405,-0.32924855,-0.14356315,-0.085994825,-0.021773288,0.23188068,0.23350626,-0.089695714,0.40148288,0.18611732,-0.13184987,0.1283758,0.13374369,0.5936279,0.38028428,-0.11649364,-0.3319381,-0.015351865,-0.019708656,0.12151259,0.16000527,0.6972946,0.37118462,0.84901416,-0.0310591,-0.021909477,0.001249534,0.47788087,-0.14020528,-0.041064397,-0.1380909,-0.5720499,-0.25820097,0.10321581,0.028366886,-0.032210387,-0.14885405,-0.36726305,-0.15382503,-0.28798774,-0.37781206,0.49550864,0.3335216,-0.28951925,-0.40516594,-0.060790066,-0.018342987,-0.5728393,-0.09941559,-0.28218964,-0.091514446,0.39975008,-0.14701103,-0.25940543,-0.46832478,-0.21858883,0.21070936,-0.21812408,-0.13763133,-0.16082993,0.36279958,-0.50318867,-0.8094543,0.058386616,-0.12548831,0.36731702,0.27740052,-0.31499487,0.10546042,0.32428807,-0.06052556,-0.043480992,-0.029936949,0.10183354,0.0995801,0.13803922,-0.2724257,0.37635425,-0.002526573,-0.12536107,-0.029080594,0.6021276,0.26060274,-0.05610753,-0.28657588,0.03215608,-0.5854355,0.2707441,-0.19530639,0.004318714,-0.32278964,0.17041792,0.04431487
hsa-let-7f-5p,-0.4941627,0.25736448,0.101153135,0.31295735,0.46004933,-0.38580602,0.2512917,-0.01674231,0.2673863,-0.3581594,0.014026006,0.002148172,0.005575245,0.15497933,0.10537394,-0.08130855,-0.05034779,0.104355425,0.22175133,0.05769265,0.035966523,0.41204143,0.054018885,0.14916816,0.04515816,-0.048534516,0.5536825,0.35620457,0.32797197,-0.07254742,0.20489097,-0.09536123,0.46605116,-0.025673809,-0.2878998,0.3175657,0.08681302,0.03916819,-0.26902744,0.30401123,-0.13610123,0.24758433,-0.33323658,0.181374,-0.023814691,-0.016604383,0.562474,0.5802372,-0.17867336,0.23220548,0.074939124,0.06647904,-0.0990464,0.31362072,-0.40930668,-0.5041878,0.7375614,-0.004849586,-0.1663659,-0.005083803,-0.15690696,0.12940542,0.002904082,-0.13392495,-0.21204305,0.045961857,0.21585909,0.18594345,-0.039796297,0.41580376,0.36357236,-0.10057943,0.03757476,0.21174562,-0.073112935,-0.0724797,0.3674633,0.14173664,-0.0942308,0.03751695,0.13874966,0.15991743,0.19325764,-0.6899485,-0.010792689,0.061265584,0.50155556,0.45687875,-0.25657493,-0.6544092,-0.023694899,-0.38625503,-0.09290572,0.572934,0.1005596,0.29209843,-0.13455586,0.34196052,-0.059605323,-0.0992484,-0.22774813,0.08252103,-0.026215471,0.1946842,-0.3895784,-0.3381598,0.31401423,-0.1892413,-0.047820337,-0.019749513,0.49576753,-0.19230345,-0.26089266,-0.47047886,-0.12053738,-0.51068383,-0.4242346,0.18857837,-0.16910836,-0.20799695,-0.008162661,-0.08634648,-0.07667733,-0.21881537,0.036035266,-0.1142419,0.04560019,0.26048627
hsa-let-7g-3p,-0.26700038,0.59087855,-0.001215692,0.42234412,0.27238142,0.08560853,-0.10459695,-0.21862686,0.2907273,0.31375957,-0.2096941,0.116567634,0.08721823,-0.035626736,-0.3643527,-0.05741431,0.12173435,-0.37660357,-0.09195849,-0.07722453,0.03756946,-0.005921039,0.21999414,-0.1885595,0.04851945,0.014147045,0.0877386,-0.34149945,0.34098396,-0.06073274,0.27843514,-0.1300208,-0.16946116,-0.13819453,0.05193408,-0.1722612,0.44820717,0.123620786,-0.13520013,0.22544101,0.108098194,0.613267,-0.16713238,0.014567746,-0.05343703,-0.5365919,0.69227034,0.037361693,0.45296642,0.34335217,-0.4092986,-0.026733384,0.028069045,0.1755886,0.03435303,0.17916368,0.24397242,0.09942365,0.33761027,0.123882696,0.235547,0.17192867,0.045474857,-0.21746625,-0.13304363,-0.21673493,-0.11330966,0.058701426,0.04236624,0.15012199,0.098446034,0.26681647,-0.18473238,-0.032923713,0.112239875,-0.37656564,0.005996734,0.24431367,-0.08010502,-0.018427327,-0.28194827,0.23169413,-0.21157876,-0.083762035,0.013599655,-0.063755944,-0.24603361,0.2855905,-0.9732958,-0.31962147,-0.18502732,-0.062727116,0.09084266,0.22163069,0.10632258,0.29233354,0.17561409,0.0629597,-0.54536897,0.09609271,0.1362883,0.1911052,-0.003050629,0.46597362,-0.03204971,-0.27148318,0.03530256,0.15447655,-0.11338864,-0.13488372,0.14089248,-0.06966809,-0.22123662,-0.0677069,-0.27863282,-0.10254999,-0.21197456,0.16861537,0.09548679,-0.2833951,-0.38260353,-0.28241554,0.18205118,-0.5157681,0.099853754,0.032088853,-0.12661009,0.3101173
hsa-let-7g-5p,-0.3737896,0.15141676,0.13676529,0.0704752,0.21504204,-0.08457501,0.19937561,0.1568331,-0.100077525,-0.5254454,-0.044577558,-0.02125277,-0.012651491,0.22840957,-0.24134801,-0.39119598,0.114831515,-0.2092502,-0.016201826,0.48875922,0.38846302,0.6490082,-0.20012845,0.35984656,0.092495136,0.06426879,0.033761535,-0.21643151,0.21697578,-0.005453076,-0.13588235,-0.5290636,-0.029996175,-0.19396481,0.028365087,-0.16525577,0.40062892,0.0750929,-0.16202052,-0.09877768,0.6249993,0.19606175,-0.101908065,-0.09219877,-0.060472805,-0.5177589,0.6382598,-0.19013736,0.527702,0.20721152,-0.35350263,0.6035752,0.1208099,0.37363404,0.10136495,-0.06960697,-0.06385798,0.12507923,0.69757825,0.28601912,0.007709887,0.14004669,0.023131412,-0.4901465,0.24977936,-0.1580394,-0.3126396,0.15922715,0.3266849,-0.2576252,0.14848195,0.13796021,-0.12125224,-0.12896204,0.1357296,0.06686267,-0.001278131,0.4029267,0.42126933,-0.14236483,-0.21115674,-0.28484398,-0.45947945,-0.16833767,-0.2502022,0.08633161,0.034278262,0.24791522,-0.5176685,-0.6385804,0.43369573,0.28522375,0.09104516,0.39118698,-0.1680256,0.44851074,-0.43604264,0.22290254,-0.1423761,-0.07915903,0.08534855,-0.043415457,-0.7093191,0.30783442,0.12656792,-0.16535136,0.7129661,0.41560167,-0.018554274,0.091073476,0.121904135,-0.45310232,-0.07412163,-0.34964705,0.3214819,-0.028858455,-0.038983565,0.24744791,0.16321792,0.12945446,0.1952135,-0.2711405,0.108196795,-0.28885657,-0.072950676,0.07607648,0.09128443,-0.21162818
hsa-let-7i-3p,-0.35306197,0.35373676,0.7492459,0.15527388,0.25969526,0.15561652,0.023784254,0.082025185,-0.024801837,0.042693403,-0.35680443,0.35028917,0.07806557,-0.022585012,-0.32330185,0.057370707,-0.1302991,0.12636606,0.37337592,0.046653993,0.13879368,0.13863684,0.37096828,0.21478175,0.19279617,0.22907358,0.26810858,0.06167483,0.12929372,-0.39914635,-0.005777271,-0.8620249,0.069109626,0.1961724,0.0757357,0.21625112,0.2812221,0.19099216,-0.19016044,0.5071426,0.15589306,-0.11639935,-0.23999391,0.022177566,-0.07516166,-0.31861842,0.27644598,0.07331923,-0.14371656,0.066470265,0.22142026,-0.14817294,0.21963367,0.33649653,0.26999703,0.033788428,0.14977291,0.42190373,0.009956941,-0.33544677,0.54201055,-0.11845033,-0.06329592,-0.12717414,-0.30599555,0.34365922,-0.16033953,-0.2945611,0.007223343,0.10644145,0.40262643,0.43214312,0.28093758,-0.048863366,0.08953422,0.05816208,0.16413157,0.46997386,-0.21993575,0.250144,-0.2941449,0.24144486,-0.3410444,-0.33756584,-0.09202009,0.062245753,0.46030307,0.1542453,-0.3700629,-0.548324,-0.14167356,0.06933745,0.32577062,-0.005680154,0.10601,0.26456574,-0.08541684,-0.3840858,-0.47479093,0.20760398,0.22098595,-0.1354638,-0.3866029,0.24520285,0.15504955,-0.17114986,0.5299615,-0.04777027,-0.08541002,0.06838173,0.077128574,-0.30273524,-0.025966479,-0.44561824,0.08801009,-0.01106309,-0.1883065,0.18364818,-0.23257868,0.13710052,-0.26481554,-0.09406307,0.014288287,0.07419092,0.043912575,0.090030596,0.18914232,-0.1752845
hsa-let-7i-5p,0.1811867,-0.17458984,0.24610111,0.13820755,0.31878453,0.11031656,0.54724646,0.53259945,-0.2982628,0.22417784,-0.47425142,-0.04484567,-0.012302537,-0.09544419,-0.1614592,-0.50337964,0.017743172,0.10668269,0.29556084,0.36945546,0.3605762,0.38656262,0.33559707,0.45204237,0.011471497,-0.073835574,0.25433415,0.19308959,-0.1412794,-0.25855795,0.06828835,-0.14643,0.169367,0.012928586,0.30281204,-0.44842038,0.22413546,-0.16061735,-0.5850224,-0.009091658,-0.099634714,-0.13273337,-0.20791109,0.25117502,0.35925397,-0.50423974,0.61961037,-0.120974414,-0.042561077,-0.027632706,-0.46063244,0.00858127,-0.292899,0.12320617,0.14660634,-0.17212926,0.23422197,-0.002364235,0.31570438,0.24013679,-0.11703432,0.23826711,-0.005628972,-0.11865796,-0.16353442,0.21311805,0.004914553,-0.15708137,0.28408375,0.4531455,0.47640356,0.13828889,-0.15405434,-0.084622204,-0.1546176,-0.02641495,0.054121263,0.37174863,0.05539394,0.23403545,-0.17755686,0.42050174,-0.21865442,-0.1676718,-0.3048542,0.094450705,0.14582169,0.2717143,0.039693348,-0.529812,0.16608228,-0.26246977,-0.2643233,0.18753503,-0.29055542,0.22945696,-0.27694076,-0.008739501,-0.19704749,0.08681079,0.14238377,-0.14041494,-0.18605025,0.05992859,0.24307865,-0.086452596,0.029958302,0.0986294,-0.06711994,-0.42897898,0.2499636,-0.27117878,0.20317228,-0.61399233,-0.37244865,0.110672444,0.3452055,-0.083059505,-0.20485908,-0.49821478,0.08232039,-0.10096709,0.6377427,-0.14712171,0.022987014,0.12195818,0.21345732,0.070731
hsa-miR-1-3p,0.041334108,0.2036764,0.2590011,0.15674184,0.11492923,0.14645232,0.20201327,0.117368065,0.10540522,-0.4674933,-0.182756,0.120916605,0.44300437,0.45849478,-0.20580205,-0.21230443,-0.45940834,0.35784888,-0.019604012,-0.06671822,-0.3743479,-0.34311613,0.25246763,0.54049057,-0.24032725,0.6459407,-0.005588586,-0.06283234,0.27470815,0.07050281,0.3654155,-0.44736955,0.08271214,-0.29542646,-0.6060482,0.001655881,0.2434609,0.29370126,-0.37240154,0.07005757,0.6978198,0.22600979,-0.22818694,0.10737887,0.041298848,-0.27014637,0.29133978,0.33935452,0.25425676,-0.21448793,-0.33731312,0.007027063,0.31248605,-0.012150793,0.42802584,-0.2474874,0.47008508,0.1574398,0.34637216,-0.3333107,-0.15945655,0.5196385,-0.14579614,-0.009074767,0.27032784,-0.09180084,0.07470305,0.29279757,-0.2011397,0.3299797,0.13378948,0.11117183,0.24991849,0.51654744,-0.21735694,0.24565822,0.28162685,-0.30386925,0.19544762,-0.15218422,-0.16747072,-0.034111675,-0.15951173,-0.4975457,-0.28489873,-0.10363299,-0.0771277,-0.01025063,-0.6909328,-0.13102864,0.3104145,-0.305137,0.3485141,-0.3763507,0.1937245,0.28630552,-0.29241204,0.6500038,-0.3036616,-0.438685,-0.26026043,0.14380752,-0.28457713,0.086386345,0.32129598,0.080691256,0.2674787,0.4102346,-0.03164155,-0.12233515,0.0777566,-0.36265683,-0.23645274,0.03173095,0.094645575,-0.022671428,0.045927882,0.096294925,0.422569,-0.51322776,0.2171501,-0.28651536,-0.24777941,-0.23009138,-0.42267606,0.11362877,-0.34549356,0.48958534
hsa-miR-1-5p,-0.49269906,-0.04783306,0.46968162,0.07072647,0.31783226,-0.057599552,0.22983004,0.03626246,0.3111637,-0.13068631,-0.12117774,0.057063952,0.08995483,-0.036033068,-0.71416104,-0.009088215,0.06654367,-0.20574431,0.012240103,0.017763305,-0.4970073,0.1666345,0.23629451,0.089163445,-0.08272214,-0.09003154,0.095214486,-0.29415223,0.17639858,0.2044886,0.3650619,-0.048929416,0.02089241,0.1168212,-0.13888688,0.21172664,0.4199389,0.11811481,-0.31211463,0.349024,0.12024226,0.007307109,-0.65731746,-0.13045087,0.003610434,-0.5431249,0.5932987,0.19175497,0.24284805,0.10682635,-0.05454913,0.10356115,-0.21687195,-0.12528004,-0.3878975,-0.20278838,0.18514206,0.08052772,0.060819365,-0.13072011,-0.014600636,0.12900676,-0.07488443,-0.4108863,-0.25249243,0.08592702,-0.33524424,0.05346564,0.19258521,0.47573566,-0.18292208,-0.34140462,-0.035241507,-0.05409275,-0.07246819,0.24318828,-0.09996689,0.28995994,0.21159446,0.06300387,-0.016873222,-0.3000261,-0.3058621,-0.28180203,-0.18844107,-0.057108004,-0.017336352,-0.40320808,-0.23406388,-0.28391698,0.15504809,-0.13451873,0.37662193,-0.05769193,-0.016407695,0.58779544,0.18998615,-0.14467013,-0.1425833,-0.33901075,0.03423126,0.08994842,-0.27865443,0.206831,0.09715727,-0.048170224,0.24786507,0.67410225,0.10541631,-0.66468996,0.25589684,-0.5711267,0.03321039,0.08484386,0.22962841,-0.26399767,-0.19379711,-0.26338297,-0.062036455,-0.10617854,0.16348054,-0.23450844,0.285754,-0.5862667,-0.18899775,0.17789432,0.085694864,0.26562935
hsa-miR-100-3p,-0.293184,0.34318405,0.18949412,0.048117608,-0.23030758,0.22085884,0.40209654,0.22276494,-0.28276777,-0.1317538,-0.09684117,0.32180792,0.22885694,0.10357246,-0.08616683,-0.08884752,-0.03456583,0.5601177,0.11008443,-0.6869993,0.31553409,0.31544313,-0.23901138,0.55179137,0.17123926,-0.035295956,-0.36293414,-0.10186358,0.31920934,-0.46973124,0.23424307,-0.45150197,-0.0626451,-0.3288565,0.19971076,0.38543716,-0.13473676,0.35281658,-0.34023604,0.12784107,-0.2627366,0.01590959,-0.65834767,0.14235331,0.2797881,0.28243226,0.46764764,0.36296394,0.47831577,-0.3327946,-0.49538156,0.6234819,0.024924316,-0.29228213,-0.01648245,0.065558955,0.20163496,0.23980762,0.266202,-0.41003934,-0.35383016,0.59093404,-0.0818803,-0.058985233,0.004771452,-0.24247701,-0.005943158,0.006726647,-0.15909502,0.43240073,0.000407113,0.118638195,0.035048325,0.08625222,-0.147828,0.28212398,-0.07266396,0.5005996,0.29050797,-0.27482247,0.016415456,-0.51600134,-0.061938155,-0.23953618,0.03658999,-0.1137422,-0.20207705,0.20520951,-0.43514115,-0.35807788,0.006446558,-0.6719593,-0.07266662,-0.21029471,0.37446797,0.2171573,-0.27502903,0.16129594,-0.1268638,-0.41097695,-0.047322422,0.19918205,0.13136734,0.20095432,0.31144494,0.187482,0.007035837,0.18227445,0.07217484,-0.28080985,0.17353569,-0.13154493,0.025610259,-0.35790503,0.19423306,-0.10284509,-0.16129503,0.19972675,0.14827111,-0.27313173,0.10987239,-0.056083485,0.140462,0.21541613,-0.124373,0.32691708,0.123444825,0.0859307
hsa-miR-100-5p,0.016465269,0.19417678,0.4202979,0.15725388,0.32788742,-0.21115617,0.38359725,0.36771604,-0.1813605,0.068354525,0.025679292,-0.025735945,0.019306071,-0.35360214,0.32152027,-0.5145306,0.08650914,0.20284747,-0.108765215,-0.27531806,0.1336169,0.46091074,0.23787923,0.052183848,-0.33436352,-0.22929431,-0.011910379,0.3460144,0.23436224,-0.41327107,0.27050647,-0.24010259,-0.40228325,-0.15532213,0.23590176,0.2916524,0.042557545,-0.036585353,0.000730393,0.35932508,0.29484618,-0.11470648,-0.47402555,0.02156673,0.25100935,-0.25320137,0.67409617,0.38865724,0.4737952,-0.18272379,-0.26336637,0.14880368,0.081552036,0.24622636,-0.20039898,-0.1897354,0.0598144,0.023318406,0.33511755,0.13488379,-0.3569394,0.12514766,-0.027264085,-0.28342175,-0.17974997,-0.13622989,0.03218387,-0.0774691,0.14602125,0.23610476,-0.2767732,-0.05461231,0.19018053,0.10735322,-0.101615295,-0.02511058,0.27341825,0.52428925,-0.12793663,-0.22175267,0.8698347,0.08574898,-0.08982175,-0.15970105,0.27443495,0.021766637,-0.15773024,0.30086944,0.108188,0.39346597,-0.42606547,-0.5648803,-0.16603512,-0.31794482,0.713922,0.06258061,0.08246107,0.15796295,-0.22782454,0.17009409,-0.10856885,0.110799156,0.3084536,0.39750445,0.24782203,-0.11261036,0.14589266,0.034646757,-0.27692547,-0.011312689,0.39878932,-0.5779378,0.45862886,0.10427425,-0.38588288,-0.13285662,0.20923504,-0.055210847,-0.07113573,-0.08850332,-0.13675572,-0.3999235,0.3699888,-0.13227023,0.086398795,0.032932732,0.10848955,0.28698713
hsa-miR-101-2-5p,-0.1782787,0.146913,0.6010135,0.16837876,0.46140453,0.29368082,0.27152586,-0.06730547,0.09277404,-0.103356615,-0.16229352,0.43694076,-0.2583027,0.23038958,0.23601468,-0.40535924,-0.003083587,0.5449161,-0.17081752,0.048378643,-0.2925282,0.8120157,0.39478832,0.06895673,-0.11852123,0.19431208,0.19705081,0.28749418,0.52704936,-0.3916542,0.04457776,-0.028198356,0.5274639,-0.05169547,0.017140202,-0.061353866,0.043623026,-0.22119944,-0.2742371,-0.22797607,0.39550337,-0.043229707,-0.4696034,-0.22978856,0.42153645,0.23852779,0.124134265,-0.24692719,1.2234712,0.044566482,-0.7654793,-0.094688095,-0.33512262,0.041424125,0.55105305,-0.031036122,0.12559508,0.6229017,-0.013234097,-0.1440971,-0.2600285,0.08968226,-0.2854373,-0.004466079,0.44515067,-0.34162787,-0.6497984,-0.58427984,-0.120254084,0.01932163,-0.09532651,0.4012899,-0.081745446,-0.14513059,-0.522645,-0.02356866,0.25285685,0.22570145,0.33404222,-0.475168,-0.08594913,-0.42676443,0.25243053,-0.57250756,-0.00314429,-0.20452172,-0.15640138,0.17887758,-0.6899112,-0.60822755,0.20039496,0.048792183,-0.3956601,0.1760451,-0.34633806,0.36094913,0.4903609,0.2025504,-0.28409168,-0.117501184,-0.048656933,-0.08790985,-0.24972422,-0.29746354,0.4831993,-0.17254873,0.24118799,0.21011767,0.15276638,-0.14666258,0.5185063,-0.09045922,0.26151168,0.24956478,-0.08518297,-0.034260422,0.19614682,0.13880333,0.45092568,-0.34703997,0.16362517,-0.45929617,-0.20813939,-0.3865878,-0.42469049,-0.30071414,-0.36545295,-0.17453653
hsa-miR-101-3p,0.38251674,0.13666485,0.58560485,0.5327825,0.005496222,-0.075543694,0.27070102,0.4667026,-0.27475432,0.33290324,-0.23203655,0.12635629,0.18655403,-0.38494173,0.10232812,0.08933393,0.43751654,-0.08536653,-0.03895262,0.365975,-0.122793384,0.1917262,-0.14837833,0.037136015,0.0574494,-0.07232266,0.37335035,-0.3207176,0.280538,-0.55285156,0.18442354,-0.36246994,0.18721269,0.09879999,0.32786173,0.28173685,0.27801394,0.17022622,-0.36674285,-0.000936934,0.44988203,0.45842922,-0.31062564,0.23779425,-0.06639153,-0.5817414,0.3630263,0.28897622,0.47279143,0.5515902,-0.33090413,0.010607213,0.2477878,-0.36977953,0.19571804,-0.25011724,0.36163282,0.1709591,0.27602834,-0.015061308,-0.08239454,0.6400686,0.2225293,-0.1203536,0.003894419,0.28003466,0.14137647,-0.06052449,-0.19215333,0.22014692,0.14401032,0.11405933,-0.19053942,0.287885,-0.24766316,-0.048925154,-0.0963012,0.09247905,0.3128058,0.0991758,-0.108608834,0.06636411,-0.031948514,0.001539034,-0.21900119,-0.05480107,0.24015377,0.2542909,-0.37876955,-0.48067984,0.004420753,-0.20362169,-0.39815962,-0.12783167,-0.22821294,0.026160233,0.119660854,0.06359039,-0.20656145,0.16044298,-0.048109554,0.017063368,-0.37406647,0.009304367,0.22946806,-0.2348336,0.56697696,-0.012592438,0.09160255,0.03522139,0.27088314,-0.5320303,0.016419675,0.07896733,-0.3923685,0.0715347,-0.21307434,0.009595742,-0.16216353,-0.59815776,-0.06431149,-0.15380265,0.4697782,-0.38437355,-0.29556608,0.03413656,0.12424486,0.14442278
hsa-miR-101-5p,-0.05893741,-0.05463496,0.33133087,0.12337436,-0.023839042,-0.07190246,0.13071533,-0.35691097,0.31453645,0.30378002,0.092542715,0.25796548,-0.027807297,-0.27520373,0.01792619,-0.0751423,0.63939464,-0.105708055,-0.057961207,0.017460644,0.11385732,0.32216212,-0.085964866,0.2535067,0.24222599,0.14227621,-0.11194312,0.09192683,0.22138564,-0.31740165,0.13246693,0.15085831,-0.055144995,0.103038155,-0.07532044,0.14782694,0.34755713,0.16346818,0.100966446,0.17112169,0.15976393,0.45296818,-0.25458995,0.3017578,0.43265185,0.051012564,0.4883795,0.28887612,0.7130299,0.14277145,-0.21603458,0.4921386,0.09364312,0.002712534,-0.3892883,-0.22921817,0.035837986,0.050210074,0.04569581,-0.06855438,-0.1767107,-0.39823565,0.07853611,-0.43129435,0.06755647,-0.42277944,0.25334144,0.047879573,-0.28336185,0.37373316,0.13323402,0.60458916,-0.13011365,0.06817877,0.1587795,-0.20220686,0.0404837,0.011074534,0.21502225,0.37196684,0.23090523,-0.19181246,0.13962938,-0.079514384,-0.25705934,0.29236096,0.22731894,-0.020940326,-0.34811443,0.05839418,0.10666587,-0.1510181,-0.27695403,0.7768866,-0.30495447,0.32354784,-0.2954647,-0.5606923,-0.18015346,-0.64214575,0.090858504,-0.16946019,-0.15726799,0.2610905,0.07234551,0.24084929,0.07796331,0.035658713,-0.4418812,-0.18297473,0.5568046,-0.3910724,-0.04759409,-0.11604159,0.089737006,0.49738538,0.120975934,-0.03157705,-0.20812316,-0.085392274,0.07557994,0.1318148,0.23156942,-0.021098794,-0.16394015,-0.013710195,0.05645886,-0.034274273
hsa-miR-10226,0.3571426,0.00301512,0.76782554,0.6108968,0.23755302,-0.41039076,0.35360852,-0.73270065,0.41770172,-0.20902215,0.15370412,0.27271783,-0.15098426,0.20362166,-0.17391735,0.27049157,-0.41123733,0.043094102,0.50898623,-0.65048987,-0.037096143,0.22180645,0.21687916,-0.061429586,-0.002524032,0.17296377,-0.6530575,0.31191057,-0.12250401,0.115416385,0.097982615,0.2583023,-0.22744098,0.22197519,-0.31029063,-0.072176084,0.2910093,0.2859111,0.21897927,-0.482093,0.46279362,0.07396561,0.013143064,0.10484555,0.27223384,0.21228479,-0.49422836,-0.7307804,0.55904883,-0.006116198,0.25956634,0.21614715,-0.31674558,0.13775249,0.50498855,0.10117721,0.12260505,-0.15093033,0.4796748,-0.21827988,-0.34877926,0.08645432,-0.04123,-0.5814018,-0.3711059,-0.14499816,0.069163874,-0.01053251,-0.3804098,-0.020795463,0.49230725,0.33971986,-0.16245615,0.09912111,-0.06580983,0.06398443,0.08301702,0.14420947,0.11493119,0.2292094,0.3920509,0.049481295,0.03440064,-0.10736339,-0.16986363,0.20017117,-0.004849702,0.1409486,-0.10890729,-0.6945525,0.1887436,-0.21781078,0.053355504,-0.09008588,-0.2168287,-0.2374471,0.23153308,-0.012027952,-0.72731364,0.41624063,0.3226572,-0.21159579,-0.2541127,-0.10629573,-0.09146823,-0.08744294,-0.049879663,0.22729681,0.17030632,-0.56061316,0.9040191,-0.28630543,-0.5439302,-0.57357895,-0.4916584,0.13350052,-0.1876963,-0.000449599,0.038635496,-0.22483236,0.110835955,-0.04195753,0.097934075,-0.64473397,-0.6131442,-0.2452494,-0.08427493,-0.05575986
hsa-miR-10392-3p,-0.06728046,0.18820466,0.013224039,0.14809461,-0.07901322,0.08101441,-0.26135337,0.21338408,0.08131183,-0.25982207,-0.3998432,-0.3698424,-0.13727939,0.19298245,0.06785088,0.049456656,0.20402038,0.337334,0.24391662,0.12135701,-0.35062325,-0.047473926,-0.07360632,0.11902663,-0.12686604,0.2639322,0.09011802,-0.03605166,-0.05975622,-0.6995931,-0.28111792,-0.44597507,0.6906956,0.09471662,0.16397046,-0.062603995,0.67388564,-0.09194708,0.45629352,-0.047779612,0.3156143,0.6242093,-0.23108594,0.5329417,0.016218774,-0.053637255,0.46708956,0.24563155,0.28139985,0.20249724,-0.3331828,0.61577904,-0.02263135,0.3732674,-0.19050905,0.1468556,0.19683078,0.19827062,0.21199217,0.42938337,-0.004216532,-0.14687063,0.6270193,-0.120464094,0.04929348,-0.022323146,0.1630637,-0.20726421,-0.2928907,-0.2543243,-0.105484605,0.05000065,0.019631928,-0.036085125,0.1355777,0.2905263,0.38096002,0.25595698,0.21296717,0.43393022,-0.41400108,0.003380236,-0.24781534,-0.04063288,-0.21103902,0.114787765,0.5311695,0.15824737,-0.20242313,-0.7456968,0.11426444,-0.23404004,0.12913802,0.22978263,-0.10474158,0.32980615,-0.053953245,-0.17139786,0.12714502,-0.21672404,-0.18254457,0.688503,-0.035649337,0.25971085,0.26494494,-0.23455939,0.44664484,0.45522016,-0.4609497,-0.13505194,-0.084301576,-0.50677747,0.042782366,0.101024926,-0.07061415,0.00767298,0.37092894,0.79825366,0.12812327,-0.33953297,-0.24375954,-0.36684352,0.11943804,-0.2434753,-0.1804862,0.16559346,0.398177,-0.17453788
hsa-miR-10392-5p,-0.06780546,1.2182328,0.55387247,0.15339515,0.2473233,-0.3173781,0.44374785,-0.13847847,-0.31769788,-0.41131094,-0.11608012,0.39427313,-0.22245045,-0.33025432,0.18778211,0.18113117,0.28553313,0.38975972,-0.04624898,-0.20905617,-0.22390401,0.91484535,0.6188218,0.32439798,0.45641044,-0.260502,0.26470032,0.42920366,0.2338639,0.12824702,-0.10217032,0.31922966,-0.09709344,-0.25356397,-0.2504458,0.7296588,-0.13664946,0.33431867,0.06637697,-0.09719287,-0.11490874,-0.13559027,-0.34010652,0.28434032,0.20478517,0.170414,0.015682982,0.111477874,0.62049484,0.19200167,0.19428758,0.37405226,0.001569063,-0.1644157,0.12634763,0.79865783,0.042771477,0.16340716,0.03692746,-0.35830402,0.42611274,0.23957565,-0.01767152,-0.22271681,-0.9286729,-0.030926565,-0.6187508,-0.37458426,0.19453941,-0.44733685,-0.060813602,0.6409144,-0.38097772,-0.08350725,0.14180987,0.36860493,-0.028094137,0.67788744,0.2956259,-0.14599335,0.019953895,0.3382587,-0.005685774,-0.038071655,-0.3578533,0.23988308,0.08370043,-0.10171945,0.2806652,0.15559173,-0.4616685,-0.08293963,-0.02709061,-0.45554325,-0.2965637,0.47023487,-0.21685505,0.034606516,-0.37097245,0.73041356,0.107359,-0.27501693,-0.03986982,0.4608069,0.25501257,-0.15310366,0.66152745,0.115738094,0.24327046,-0.024486698,0.009746136,-0.18150392,-0.051484205,0.02692477,-0.06456716,-0.34183237,-0.31010634,0.1575365,0.059775434,-1.2914113,-0.17350578,-0.2526682,-0.11250882,-0.45849243,0.13043174,-0.047028106,-0.20195396,-0.3790025
hsa-miR-10393-3p,0.3206667,0.28422794,0.4656531,0.34354037,0.7771025,-0.033292152,0.26281276,-0.3014808,0.40394986,-0.60734546,0.12540495,0.15326801,-0.6896693,0.22042806,-0.05534642,-0.17410001,-0.5503398,-0.14137924,-0.501632,0.3214762,-0.56505114,-0.113495305,-0.26908582,0.1377466,0.52322954,0.20767261,-0.36729008,0.15576844,-0.046865072,-0.4374864,-0.1846416,-0.44668,0.49808615,0.13970795,-0.23352183,-0.52356446,-0.15021315,0.12835725,0.20971695,0.030097019,0.16864319,0.26973087,0.23447762,0.2669243,0.33114138,-0.014492847,-0.41063768,-0.36897248,0.27108827,-0.094598435,0.050525606,0.9610352,-0.087986715,0.23730777,-0.27547973,-0.042284217,0.16197786,0.31899178,-0.31338885,-0.364901,0.077856556,0.45067316,0.22315083,-0.7629067,-0.37713453,-0.12859951,0.10110711,-0.42896292,-0.34948394,0.17131336,0.680389,-0.13541281,-0.6101549,0.46257642,-0.51602536,0.35936823,0.08780153,0.3641091,0.40349317,0.3864883,0.6567592,-0.124927945,-0.46535355,-0.31493115,0.7200826,-0.011049137,0.083613575,0.1422879,-0.31923625,-0.4325723,0.71156174,-0.20075485,0.35679024,-0.50406224,0.28672808,0.62765986,-0.5740011,0.2938312,0.44633186,0.027758254,0.63411146,-0.062229544,-0.57481956,0.7840196,-0.21518698,0.19642507,0.58378845,-0.4317409,-0.15449354,0.31019312,0.37496996,-0.26693892,-0.6290803,-0.10321424,-0.18361244,-0.053353257,-0.29487702,-0.009686532,0.022030473,-0.29304424,-0.12414818,-0.7605459,-0.23815122,-0.70678866,-0.5191732,-0.2851529,0.10669201,0.16582306
hsa-miR-10393-5p,-0.20394239,-0.04265789,-0.10281641,-0.38165456,-0.14409947,-0.09853973,-0.23797253,-0.02137436,-0.1534205,-0.36262932,-0.649581,0.014008448,-0.015660914,0.36247045,-0.11730131,-0.33547613,0.038647365,0.39625648,0.3084288,0.08247485,-0.50804454,-0.117942676,-0.088870764,0.14881687,-0.21813883,-0.23343118,-0.00392926,0.24907762,0.086467326,-0.5467415,0.32476407,0.20789258,0.32221055,-0.30746925,-0.6208542,0.23127545,0.45551336,-0.483884,0.44006607,-0.013980858,0.3227001,-0.24469271,-0.42521816,0.21995255,-0.1907312,-0.13266987,0.73663527,-0.18984818,0.21399376,0.18950346,0.042940173,0.13036703,-0.5377245,0.25371256,0.065761134,0.1384957,0.6314661,-0.04393167,0.114971936,0.26948184,0.46329808,0.07460143,0.3443252,-0.6897543,0.057196364,0.3569302,-0.30340478,-0.7236444,0.15369369,-0.067371055,-0.062830895,0.27807927,0.20762013,0.31507427,-0.16289392,-0.43847215,0.80037725,-0.11350504,0.69815004,0.512387,0.12835948,0.25554898,-0.044266034,-0.33144394,-0.09126136,0.49422258,0.5007385,0.76566774,-0.7640974,-0.80354315,-0.01672499,-0.3575045,-0.3409197,0.58187354,0.037788466,-0.52545524,-0.094979644,-0.06301935,0.06820068,0.15123451,0.483859,0.015307955,0.30992538,0.19127426,0.4182608,0.068587445,0.6787042,0.008028376,0.05708918,0.37624002,0.12821919,-0.23811726,0.31859475,-0.13409218,-0.18214925,0.0803514,0.3720949,-0.21025974,0.56431764,-0.30129498,-0.49506682,-0.4816525,-0.1339673,-0.55496216,-0.07445088,-0.48207518,0.114709444,0.16664316
hsa-miR-10394-3p,-0.6077918,0.23627001,0.81946594,-0.009825829,0.1824349,0.22336917,0.54074794,-0.10224875,-0.11693499,-0.054859605,-0.37995198,0.3338252,-0.34021857,0.27474114,-0.021203898,0.2610408,0.2776134,0.523338,-0.17844766,-0.08491086,-0.34462658,0.17771053,0.2946166,0.07643061,0.30692047,-0.24445277,0.5637539,0.5471916,0.32241055,-0.44666103,0.45544755,0.15059835,0.12891448,0.21593668,-0.49785316,0.37615573,-0.10485639,0.36475697,-0.006191729,-0.04519133,0.08170121,0.26713896,-0.40373582,0.027713515,-0.351627,-0.040838756,0.31388927,0.45478767,0.46128565,0.46357334,-0.08082148,0.026593158,-0.7899115,-0.15533774,-0.028938754,-0.17963463,0.075491585,-0.12383827,-0.09706423,-0.46748728,0.2296446,0.1843772,-0.15967657,-0.26828885,-0.3650804,-0.1900731,0.00129169,0.007771066,0.022400258,0.08325739,0.10483104,0.20860519,0.257009,0.43582416,-0.31812307,-0.13509765,0.5017599,0.08897147,0.23153527,-0.31880394,0.025273075,0.0464456,0.18237843,-0.10968482,-0.29581717,0.103456944,0.09338246,0.41217327,0.55733,-0.3541653,-0.39211488,-0.56379807,-0.15684423,-0.2556806,-0.17867544,0.015384108,-0.014119168,-0.8102278,-0.47498372,-0.37060994,0.022869997,-0.1006135,-0.23626767,0.67794514,0.4704696,0.43939647,0.6279219,-0.0813066,0.24836758,-0.2388751,0.014008542,-0.27421018,-0.14549679,0.24313891,0.09752548,-0.23342113,0.2809323,-0.35491008,0.09233171,-0.24068853,0.045491673,-0.6183854,-0.367346,-0.3128361,-0.12958886,0.19588259,-0.4877196,-0.001598093
hsa-miR-10394-5p,0.7045854,0.51740307,0.51969886,0.13123943,0.6200655,-0.16754878,0.40150532,-0.032990433,0.38782117,0.08120491,-0.058831,0.10548183,-0.11016841,0.4865105,-0.13776225,0.3008933,0.21737602,-0.36232972,0.43961626,-0.048574828,0.23805594,-0.029409574,-0.058557384,-0.43977377,-0.090595946,0.065581106,0.41357952,0.021303639,0.4105838,-0.6842501,0.219062,-0.37816283,-0.18026206,0.361013,-0.3265123,-0.46515143,0.03987984,-0.024389349,0.13452311,-0.15555856,0.05271077,-0.003038654,-0.3323345,0.60603386,-0.32572493,0.19894809,0.35095465,0.014726209,0.3178166,-0.23623319,-0.056108914,0.30831867,-0.3292448,0.28739008,0.39016888,0.43267304,0.3433599,0.5117722,-0.2746671,0.2371521,-0.16390398,0.06920709,0.22153755,-0.5943959,-0.4643274,0.54976064,-0.2641194,0.049351025,0.36242476,0.30271146,-0.4375812,0.08701292,-0.05304569,-0.20558919,-0.37558457,-0.10675955,-0.24158905,-0.0831611,-0.00359839,0.21943708,0.23131609,0.123882525,-0.9026897,0.120858036,-0.56503206,0.28734204,-0.06498861,0.38992712,0.13819386,-0.45559365,0.2619924,-0.59815985,0.12378358,0.07327981,0.09392938,0.81941897,0.59227604,0.19134155,-0.24549821,0.39019334,0.31879345,-0.07255708,-0.75339234,0.24111877,0.78728694,-0.1702485,0.4724087,0.48762006,0.19031172,-0.54668283,0.6186997,0.2003644,0.1645336,0.25204337,-0.31817946,-0.34577343,-0.055784464,-0.182364,0.3042964,-0.15812327,-0.32749635,-0.57844853,-0.09303219,-0.42637375,0.5924109,0.011437081,0.46704596,0.41834715
hsa-miR-10396a-3p,-0.5642006,-0.2380624,0.47395664,0.09774982,-0.23577155,-0.15578692,0.15683883,-0.81254303,-0.36863938,-0.028664064,-0.32860824,-0.005614449,-0.27274382,0.2693724,-0.153997,0.28785464,0.013977967,-0.610479,0.3071928,-0.31731853,-0.2429512,-0.11300757,0.079656854,0.13248293,-0.1716531,0.16054809,0.4479633,0.27496317,-0.29807496,0.07566976,0.14160745,0.08944197,0.15416464,0.012302839,-0.11237858,0.16048491,-0.16122086,-0.39452514,0.49055597,0.21648686,-0.3406535,-0.21726115,-0.33866215,-0.26376012,0.062641226,0.292988,0.16363385,-0.10598673,0.17219967,0.110388026,0.06345637,-0.08226961,-0.6574098,-0.4288485,0.40066007,-0.11906759,0.051286615,0.29433823,0.18810563,-0.004572849,0.15888922,0.029830886,-0.24526764,-0.19606966,0.088779956,0.052379332,-0.4896411,-0.10204375,-0.091882385,0.18166508,0.25442922,0.36360812,-0.13327774,-0.65308225,-0.45239836,-0.33846948,0.465708,0.13028413,0.3725535,0.005353232,-0.24269076,0.38920525,0.45772153,0.36719584,-0.4607287,-0.07473118,-0.26773417,0.1085588,0.18087192,-0.29828405,-0.008676484,-0.22231132,-0.43662015,-0.29200733,-0.12114471,0.072966166,-0.21428609,0.36196077,0.4060194,0.012691956,0.20572324,0.35781756,0.19978863,0.41170922,0.58632714,0.3267293,0.05953536,0.14698012,0.23398268,-0.048909947,0.17488651,-0.1303662,-0.517231,-0.40787816,0.17574857,0.12741902,-0.06980581,-0.07210134,0.08725249,-0.4387046,0.07140704,-0.2873137,0.30501235,-0.78627026,-0.72116214,0.32873988,0.15336058,-0.08597214
hsa-miR-10396a-5p,-0.4724159,0.08869816,0.32257473,0.12554069,-0.20095244,-0.09115525,0.3410595,-0.54779345,0.10287564,0.15497778,-0.105257936,0.52103525,0.046007693,-0.20287019,-0.018334039,0.0744302,0.059117258,0.53275913,-0.124133624,-0.1879823,0.19675456,0.73975205,-0.12510522,0.15933311,0.60676056,0.012914783,0.26160142,0.83510095,0.16821568,-0.80117637,0.14578839,0.47870842,-0.05257181,0.010705461,-0.42645237,0.4107388,-0.24377872,-0.34844568,0.18979588,-0.19071597,-0.024691485,-0.284738,-0.18710046,0.21232474,-0.09923512,-0.02843026,0.3563071,0.18729624,0.58685637,0.6379319,-0.136299,0.01635363,-0.42800933,-0.14148805,0.3017898,0.096689925,-0.050711054,0.55001605,0.14086542,-0.5911293,0.37325633,-0.08635068,-0.03373598,0.28110656,-0.2522262,-0.18187277,-0.12546141,-0.0708418,0.15446205,0.2973573,0.08046247,0.23072578,0.35841945,-0.26763812,-0.022632893,0.23040286,0.086577415,-0.14421636,0.4512265,-0.011080608,0.1784097,0.15470755,-0.10773078,-0.09718834,-0.5018966,0.07953057,0.2609463,-0.39219552,0.17932114,-0.5021366,-0.8010848,-0.19834042,-0.1933023,-0.4275318,0.19601908,0.38018999,0.07897516,-0.24942903,-0.72430795,-0.2390395,0.4199895,-0.5748682,-0.1996533,0.52476597,0.41629344,-0.3108341,0.07004416,0.29445258,-0.07866526,-0.04315073,-0.006602561,0.28826076,-0.020239167,0.4271653,-0.29476628,-0.30175868,0.10359649,-0.26471135,-0.021657709,-0.4022439,-0.02165177,-0.35093564,0.10926928,0.009001098,-0.11427817,-0.01027899,-0.24785914,-0.021730347
hsa-miR-10396b-3p,-0.1445499,-0.05876791,0.09232084,0.15184315,0.004453382,-0.37391806,0.003382231,-0.21591637,0.047893345,0.08499869,-0.16982442,0.10351998,0.11194188,0.21073197,-0.050902504,-0.15143585,0.22636591,0.12532106,0.058885764,-0.06429749,-0.062851615,-0.4698947,0.19370168,0.22131461,-0.1199486,-0.022590375,0.514249,-0.26662904,0.24928688,-0.5331022,-0.4562085,-0.34831795,0.61946654,-0.07890012,-0.6293658,0.23111427,-0.45209202,0.6120795,0.34882572,0.5066554,0.20370114,0.048501942,-0.47955006,-0.2610914,-0.12408668,-0.2977674,0.09405613,0.08332085,0.41281477,0.05503413,-0.041557804,0.44324633,-0.18899226,0.3522946,0.24227828,-0.08033853,0.0919704,0.4319762,0.25615808,-0.24474391,0.3658806,0.37701774,0.016604891,-0.1436819,-0.25879744,-0.16018522,-0.36363214,-0.003565255,-0.24926704,0.078909345,-0.1400458,0.47333962,0.23209581,0.27406844,-0.40063137,-0.14508061,-0.123530455,0.07395776,-0.15783794,0.27960312,0.009125056,-0.23129971,-0.40624845,-0.21113081,-0.2811985,0.25048247,-0.043074608,0.12441929,-0.35322335,0.03392622,-0.041909803,-0.21182097,0.097282335,0.06045464,0.5245011,-0.17366941,0.29861036,0.0976297,0.021431057,0.37500116,0.04907784,0.6295186,0.2129344,0.18233168,0.17251112,-0.24511407,0.18589306,0.4153495,0.18369429,0.003437373,0.40747306,-0.29072848,-0.29962027,0.3726095,-0.17730403,0.5365243,0.07467765,-0.1374833,0.010132919,0.30935958,0.3127861,-0.1922569,0.031066429,-0.8127472,-0.26970533,0.35095885,-0.15733437,-0.03776643
hsa-miR-10396b-5p,-0.0695509,0.020351296,0.19140667,0.44830513,-0.025909416,0.28551796,0.49850786,-0.42007056,0.36539418,-0.15369314,-0.24428177,0.04598242,-0.01264012,0.17244048,0.13394515,0.20705609,0.013319815,0.34779936,-0.08345047,-0.025348555,-0.09788887,0.49926922,-0.3828506,0.3781508,-0.34820437,-0.2515364,-0.17751281,0.33961442,0.4869374,-0.23923726,-0.21861027,-0.23867984,-0.025700716,-0.23309848,-0.39128026,-0.30627733,0.004347122,0.2418535,0.046051983,-0.12500384,-0.38782206,-0.069583446,-0.20038334,-0.085495934,0.50349236,0.18074265,-0.065541856,-0.13790111,0.30855963,-0.17678452,-0.057275724,0.44357118,-0.25846574,-0.46583095,-0.11279976,-0.4019355,0.0638878,0.42094213,0.45791313,0.20159164,0.06523302,0.052641883,-0.2596598,-0.048619192,-1.1780297,0.17728825,0.10678462,-0.009934331,-0.3069045,0.32212028,0.1795717,0.37433162,0.2976602,-0.22277617,0.21179199,0.4451321,0.06666835,0.015941042,0.5728148,0.017152628,0.31232435,0.22617,0.034925815,-0.21032795,-0.16289413,-0.092506856,-0.16582717,-0.025151253,0.14558993,-0.31961498,-0.5402184,-0.54665536,-0.15124862,-0.16920657,0.23566203,0.24933173,-0.40087503,-0.30350724,-0.45139718,0.4722899,-0.12770286,-0.23323642,-0.1367605,0.6174857,0.24700768,-0.6227764,-0.039583173,-0.03234884,0.08259519,0.14183177,0.36670595,0.104619235,-0.23239824,0.67775816,0.32145005,-0.09063325,0.004603155,0.048888084,0.08833149,0.25167704,-0.38822898,0.34469107,0.06342402,0.5019025,-0.2555234,-0.15136495,0.59486055,-0.05215043
hsa-miR-10398-3p,-0.9066455,-0.13339545,-0.10357031,0.3887966,-0.11997624,-0.1521288,-0.40789238,-0.035229295,-0.4383522,-0.16154154,-0.7115746,0.65512455,0.2169274,-0.30757722,-0.1832413,0.566889,0.245092,0.038141582,-0.5483997,0.1169455,0.15830635,0.021444645,0.26765192,0.5124275,0.05646176,-0.55083966,0.36009336,0.6154695,0.273338,-0.27241933,-0.15214264,0.10503498,-0.059777316,-0.44833216,-0.16784659,0.13385491,0.059683874,0.40381607,0.40837312,0.33104318,-0.19437149,-0.010362444,-0.03265678,0.24776012,0.2751025,-0.03795617,0.22183223,0.3570227,0.39736435,-0.009457159,0.001324794,-0.377376,-0.5627756,0.5819856,-0.007073253,-0.33493906,0.16830324,-0.21794027,0.63321126,0.12141325,0.43465468,0.60997146,0.3689817,-0.84086084,-0.19474934,-0.15800747,-0.13740993,-0.062373437,-0.014994025,-0.05123533,-0.3389276,0.07148686,0.195644,-0.4897689,-0.23284835,-0.44599512,0.148135,0.070325725,-0.01899873,-0.27313003,0.298395,0.24582161,-0.303145,-0.008315239,-0.49450576,0.15084937,0.097068965,-0.00385374,-0.122719094,0.13387331,0.23333831,-0.59790367,-0.42741066,-0.26970714,-0.2609252,0.17857715,-0.3747175,0.36271042,-0.14435872,0.1069407,0.5622147,0.7887813,-0.15851216,0.32244122,0.43080524,-0.181495,0.4540261,-0.105790615,0.3701469,-0.6038151,0.12184403,0.22529313,0.4377161,0.34448215,0.26157948,-0.39517802,0.22871844,0.23016867,-0.45339113,-0.12147839,-0.5960613,-0.8851283,-0.02112253,0.07060682,-0.27745116,-0.09382756,0.24900039,-0.2916757
hsa-miR-10399-3p,-0.027828362,0.45400006,0.7351626,-0.21084023,0.58582896,-0.49163613,0.7145891,-0.23878463,-0.35469827,-0.13887365,-0.72691375,-0.13228308,-0.32713574,0.036231607,-0.15180504,0.70759827,-0.35602108,-0.059741452,0.13579057,0.005253931,0.02848693,-0.40427646,-0.6128927,0.6485296,0.09572396,0.2928272,0.9978825,0.27910087,0.14960137,-0.4836035,-0.3198256,-0.25023627,-0.08478331,-0.18599983,0.41222996,0.15132819,0.31060064,-0.38001963,0.019049598,0.4586391,0.7027721,0.53342843,0.37703526,0.18213755,0.64146554,-0.3353213,-0.18516694,-0.055109926,0.37229192,0.06816066,-0.09225312,-0.15717255,-0.24808148,0.45619673,-0.39481637,-0.09844425,-0.109223805,0.3158947,0.6106139,-0.15898299,-0.3865513,-0.277639,-0.4729574,-0.8660522,0.6773245,-0.17673652,-0.055862505,-0.5004354,0.7761943,0.3456492,0.038222007,0.5556448,0.7080035,0.11931378,-0.5419992,0.16420174,0.67562264,0.47351524,-0.09124043,-0.016780935,0.001497733,0.79955894,-0.66137826,-0.11622922,-0.8857962,0.09427097,0.2977096,-0.536079,-0.557816,-1.2325628,0.0893755,-0.4686655,0.88548607,-0.02171258,-0.22727986,-0.35123423,-0.24587175,0.03057476,-0.004706139,-0.3886485,0.59398645,0.17953971,-0.6923405,0.5844391,0.35222912,-0.6188354,1.0511991,-0.40167978,0.26785666,0.044266425,0.7913691,-0.049954303,0.9954366,-0.3056797,-0.7945601,-0.8887102,0.5107996,0.4518261,0.37252563,-0.49722943,0.20504287,0.29217413,0.05268967,-0.7360091,-0.38790613,0.9752628,1.1129878,0.54397136
hsa-miR-103a-1-5p,-0.51488256,-0.3521324,-0.10235763,0.23682256,0.45584267,-0.13682571,-0.42101496,-0.025870647,-0.4083225,-0.26428467,-0.883828,0.38308844,0.25168574,-0.5423112,-0.4401418,0.5401636,0.22568046,0.50726867,-0.1747488,-0.43999043,0.51134765,-0.36418825,0.08056061,0.55064696,-0.036811125,-0.18163152,0.3580158,0.04901965,-0.16562232,-0.5210313,-0.13761789,-0.6058166,0.2668647,-0.51761013,-0.043032262,-0.09949348,-0.2524841,-0.25190988,-0.06720611,0.32959214,0.39492142,0.22438106,0.10301037,0.34472838,0.33969155,-0.69206774,0.27113292,0.6752263,-0.17081709,-0.05058358,-0.20013435,0.1563182,0.09789188,0.19020247,-0.24204507,-0.3279756,0.108020246,0.2212604,0.3166459,-0.21407193,-0.5428834,0.24832653,-0.4673119,-0.25225076,0.019440498,-0.18673865,-0.056777164,-0.33518377,0.31788105,-0.27688524,-0.17088197,0.2878959,0.18182516,-0.23625748,0.5222541,0.19408558,-0.2002464,0.5546101,0.20941666,0.023970783,0.1154038,-0.3261457,-0.2746757,0.05843517,-0.41278175,-0.22645201,-0.20118989,-0.10004811,0.030212943,-0.43199617,0.37571934,0.021930713,-0.40095332,-0.19256844,-0.22098283,0.48579022,-0.082663156,0.56177586,-0.10024609,0.20719284,-0.24622713,-0.13803186,-0.19115855,-0.34746885,0.7158873,-0.004662356,0.50727206,0.774233,-0.15265535,-0.5764845,0.21799007,-0.0819877,0.06002032,-0.36632398,0.2349299,0.44237444,0.6902691,0.19912009,-0.4147048,-0.5696938,0.16521949,-0.45881864,-0.100454666,-0.72004867,-0.21688494,0.11551374,0.50269824,0.019461852
hsa-miR-103a-2-5p,0.25043377,0.07361879,0.27301994,0.30289847,0.29556093,0.34021965,-0.17647369,0.043004353,-0.3584547,-0.5720255,-0.28605887,-0.2152258,0.3730921,0.20434742,0.37976837,0.24449995,0.08470041,0.099882446,0.11072694,0.47756344,-0.16990286,0.0626615,0.3578368,-0.2586316,0.49472737,0.20960501,0.3557168,0.8366228,-0.2737689,-0.6898776,0.07335599,0.5324244,-0.54383683,0.15018325,0.013460519,0.26749715,0.11685487,-0.01460583,-0.33823085,-0.071326815,0.47044697,0.52048695,0.32171065,-0.15394688,-0.06852074,-0.19105852,0.18387373,-0.2324158,0.8189189,-0.053212073,-0.35745537,-0.29887637,-0.118927255,0.09659666,-0.037618995,0.26951218,0.026240513,0.73817945,0.08482477,-0.05399042,-0.28387392,0.12169984,0.67574394,0.23902713,0.24073714,0.5114147,-0.27171037,-0.036897495,0.37181264,-0.22481865,0.005766638,0.4060415,-0.24441878,0.100164026,-0.3728349,-0.014450351,0.49061626,-0.28442892,-0.30295792,-0.1853539,-0.4903848,-0.13607524,-0.28801998,-0.11833335,0.6318908,0.08369309,0.2299279,-0.011479749,-0.62063533,-0.66400266,0.2249915,-0.3436249,-0.23624691,0.034399975,0.31441694,0.67973614,-0.24807814,0.027537951,-0.22496907,0.26305756,0.04810197,0.06826789,-0.18609108,0.3887574,0.8788365,0.20373178,0.3424524,-0.18467452,-0.41250753,-0.514387,0.61096644,-0.22242735,0.102083616,0.09147037,0.025394278,0.078445114,-0.11270341,0.27429244,0.075065054,-0.22127913,-0.10068028,-0.000526651,-0.15198298,-0.338279,-0.5670936,-0.02142619,0.4069708,0.14793909
hsa-miR-103a-3p,0.22486705,0.57155156,0.40810025,0.22597155,0.6347384,-0.6250654,-0.0457446,-0.14505394,-0.46316624,0.47953683,-0.04538005,-0.2276566,-0.69828564,0.3031129,0.7152523,0.6722912,-0.4400501,0.07527924,-0.23494038,-0.30789414,-0.09059369,-0.21978855,0.31278434,0.108280756,-0.19858423,0.24904928,-0.22681256,0.4490783,-0.046908185,0.2322815,-0.49869096,-0.009596856,-0.23676492,-0.37417442,0.20661265,-0.29448056,-0.05142393,0.3505353,0.003402487,0.19967338,0.3548136,-0.41815323,-0.22966275,-0.2230198,0.7017308,-0.1442526,-0.07720672,0.30073488,0.25113648,-0.027829198,-0.18930036,0.7551339,0.19719063,-0.40154916,0.11922773,-0.35981056,0.54480255,-0.065235406,-0.0594955,0.35958195,-0.79882425,0.18313387,0.07609787,0.0587584,0.42916983,0.2563331,0.3631622,-0.37434676,-0.006041508,0.31889182,0.19357747,0.21338218,-0.13950102,0.4641535,0.26562268,-0.305028,0.17404228,-0.1860573,0.22997434,0.4372868,-0.043952186,-0.29012808,-0.18152402,-0.48540908,-0.6132288,0.013388376,0.042523745,-0.16991429,0.5603758,-0.002867475,0.18412064,0.005854539,0.65038407,-0.28613508,0.36540422,-0.2538218,-0.30313915,-0.16012774,-0.51516944,0.23638666,0.0951481,-0.25432485,-0.45134038,0.5053387,0.11240515,-0.40330806,0.6912689,0.11598185,-0.20754103,-0.3500076,0.086398676,0.0509333,-0.19606218,-0.08278023,-0.6238143,0.21692592,0.000683294,0.084918484,-0.11126147,-0.16615948,0.2011549,-0.32209802,-0.025547791,-0.16832328,0.18505004,-0.7502075,-0.045002967,-0.25050345
hsa-miR-10400-3p,-0.35007977,0.24061196,0.17972332,0.6410302,-0.006961629,-0.62670046,-0.10894978,-0.7927313,-0.45358366,0.20565699,-0.1868369,0.44711024,-0.67158526,0.05568278,0.4115541,-0.13698159,0.039618097,0.8315541,0.0316303,-0.6306813,0.42158613,0.38727123,0.15928139,0.01919302,-0.03623692,-0.49779162,0.023562806,-0.20543112,0.14896922,0.569845,-0.45670608,-0.049583696,0.60487306,-0.23982348,-0.73811543,0.014038937,0.2761096,0.38437533,-0.19789204,-0.085818,-0.09261916,-0.11225906,-0.54474926,0.29036346,-0.20434046,-0.084463775,-0.48626497,0.09076355,0.067605555,-0.14520212,-0.032297287,-0.09523073,0.1098158,-0.54289764,0.28805432,-0.26120818,0.48545608,0.02660816,0.41929585,-0.12441637,0.527557,0.3180659,-0.289828,-0.18195331,-0.51319396,0.29968172,-0.31711015,-0.24926819,0.5443492,-0.022587312,0.5120764,0.34060287,0.3841618,-0.37491977,0.16754949,-0.56955314,0.26396033,-0.32657984,0.39321238,0.19060378,-0.16766699,-0.23861499,0.30681977,-0.3333457,-0.3166075,0.06564996,-0.16702674,-0.4140651,0.37529373,-0.1721264,-0.053496167,0.12221624,0.7285067,0.095799915,-0.19650556,0.1181157,-0.099650405,0.411985,-0.032843605,0.19230478,0.8141203,-0.21303728,-0.09109026,0.78070605,0.961726,-0.09448993,0.23783213,0.5889709,0.16945727,-0.0997506,0.2230913,-0.6892813,-0.24401192,0.15401411,-1.0326318,0.47623473,-0.04309663,-0.055502128,-0.29674304,-0.442121,-0.4271197,-0.594221,0.2709041,-0.39060408,-0.039288852,-0.35605645,-0.34614092,0.20517693
hsa-miR-10400-5p,0.052436754,0.2471495,0.09384458,-0.032012463,0.48841205,-0.060463294,-0.112455234,0.10802201,-0.28549975,-0.121934876,0.0799578,0.11447117,-0.09586974,-0.32994154,-0.11182528,-0.15644605,-0.12159185,0.51497656,-0.043385044,-0.1674088,0.32411283,0.24244586,0.5048737,-0.32349756,-0.5158524,0.28738403,-0.06525434,-0.00794631,0.5364007,-0.16350499,0.07312999,-0.3703735,0.25477865,0.07785512,-0.6689408,-0.07240927,0.3929042,0.43603677,0.16639787,-0.15263164,0.3384554,0.06806369,-0.58591294,-0.3123531,0.17571719,0.011163425,0.59624845,0.82050323,0.2505738,0.08855022,-0.2553569,0.0488704,-0.70214427,-0.007361327,0.5475083,-0.08906951,0.011334343,0.23560213,0.50319934,-0.50243646,-0.48141432,0.3699248,0.14909281,-0.24570535,0.078109,-0.20956706,-0.020497458,-0.048690457,-0.20021743,0.13609712,0.15915848,0.08009202,0.27398476,0.7207161,0.15099643,-0.09200146,0.14961426,0.5760061,0.03078052,-0.2920889,-0.1637614,0.04719257,0.03803573,-0.78142947,-0.04377521,0.1126597,0.23026314,0.25990936,0.27790776,-0.25203216,0.11951172,-0.35555854,0.010304389,0.03677255,-0.2911655,-0.00619009,0.3546433,-0.3088571,-0.23973772,-0.003073946,0.5226162,-0.17231227,-0.2218065,0.40250996,0.18586515,-0.23174371,0.37965378,0.120894305,-0.3004508,0.16101837,0.01860641,-0.91403455,-0.3248078,0.045564435,0.3438751,-0.25856996,-0.25232586,-0.34585318,-0.29252988,0.13580301,-0.090515465,0.05982475,0.07904635,-0.49943444,0.31887722,0.3562314,0.06230691,-0.21997626
hsa-miR-10401-3p,-0.51830965,-0.1134137,1.0034543,0.34139976,0.008967194,0.09512225,-0.22235557,-0.3136634,0.18254939,-0.60040104,-0.16227798,0.5503122,-0.42599872,-0.030256215,-0.06965456,-0.061229024,0.237458,-0.1485458,0.27528876,-0.30396467,-0.46115732,-0.05865524,0.45843259,0.16792557,0.37923032,-0.35702124,-0.08448112,0.16487087,-0.102903455,-0.44556123,-0.24656439,-0.43023014,-0.10285704,0.18696928,0.19749165,-0.3129049,0.111863546,-0.42241395,0.24976367,-0.37559158,0.1598051,0.6567146,0.08404627,0.11621961,-0.22694573,0.32660502,-0.18281981,-0.39097238,0.020582695,0.6724515,-0.2354949,0.20079617,0.016833562,-0.4087913,0.41601163,-0.55082184,0.08100493,0.2676884,-0.028555464,0.15691745,0.015861083,0.023265138,-0.37460208,-0.20368512,-0.3756842,-0.20063797,-0.033475712,0.21185355,0.07656386,-0.12493268,0.09313206,-0.45246264,-0.49029395,-0.8628532,-0.31061146,-0.29714492,0.49344766,0.20969498,0.3857162,0.13302086,-0.4487194,-0.022555385,0.02823475,-0.55369663,-0.07310898,0.011880349,0.05059379,-0.165984,-0.62768143,-0.11502927,-0.17319474,0.3128188,0.5026338,-0.13512784,-0.1649035,0.5799168,-0.114922985,0.04336644,-0.054153353,-0.24839789,0.42392552,-0.018688114,-0.5990748,0.49747488,0.30279586,-0.3717367,0.34107316,0.27850735,0.2562952,0.088339545,-0.16749533,0.07860563,0.31887588,0.19271472,-0.26353294,0.2821166,0.011253572,0.29947242,0.016139964,-0.5427424,0.34203202,-0.22455753,0.4226648,-0.523362,-0.40828395,0.07242752,-0.3264174,0.011610755
hsa-miR-10401-5p,0.2600451,0.4169652,0.3766499,0.24588594,-0.35933718,-0.09404027,-0.18688968,-0.69474405,-0.48898116,0.05927598,0.20810218,0.19701038,-0.5870166,0.08104459,0.061040286,0.26690224,-0.37778133,0.2764258,0.30490765,-0.052259617,-0.19865985,0.004821438,0.3042479,-0.040305015,0.07502397,-0.16191253,-0.23025967,-0.028420674,-0.07950174,-0.16979073,-0.105076164,-0.0935113,-0.17756703,0.5665279,-0.55585796,-0.13396832,0.11814474,0.16881442,-0.25809214,0.2891763,0.36168143,0.22960764,0.14008276,0.007202137,0.07741325,0.38392067,0.036225203,-0.011394599,0.4667343,0.53655636,0.14196238,-0.06879659,0.6249838,-0.21639758,-0.038152505,0.20768115,-0.24200173,0.11462272,0.02723724,-0.12977774,-0.16098365,0.23508954,0.34906843,-0.0827381,-0.1867551,0.51406056,-0.44487646,-0.26769292,-0.39088145,0.21427663,-0.036984526,0.5065173,-0.019756448,-0.05088383,-0.24012166,-0.20259255,0.91994643,-0.16716285,-0.24454056,-0.253669,-0.16495176,-0.11813044,0.42473105,-0.5170723,0.61929256,-0.008814754,-0.01591518,0.21008365,-0.40172383,-0.15355538,-0.11438949,-0.09264683,-0.43734112,-0.26634812,0.54817396,0.005921129,-0.045760054,-0.086180225,-0.101628505,-0.002935836,0.21840659,0.25200757,-0.24887386,0.009053361,-0.34360784,-0.67338216,0.19546321,0.6682842,-0.4525685,-0.061365597,0.04141804,-0.17544274,-0.3097133,-0.28439513,-0.38041088,0.79419684,0.009874016,0.23559596,0.20097728,-0.26501352,0.08417609,-0.02168967,0.06883916,-0.50363356,0.12719575,-0.08635258,-0.05306269,0.06955192
hsa-miR-10523-5p,-0.07636248,0.045100935,0.2556409,0.7304108,-0.04758878,0.42832586,0.64143384,0.069781326,-0.25292978,-0.81531674,0.043110453,-0.1596974,0.056959406,-0.27426445,-0.3010974,-0.005002161,0.09894756,0.029265182,0.21959862,0.19481924,-0.31678897,0.28063926,-0.015301604,0.384555,-0.010472591,-0.23302746,0.09899286,0.6086813,0.50143516,-0.4436159,-0.11754596,0.2920379,-0.23862296,0.23896797,-0.36986023,-0.33082727,-0.22121826,0.052457843,-0.037751295,0.18724057,0.40446174,0.18221968,-0.5391203,-0.021476928,-0.12610139,-0.36457387,0.18379855,0.40291616,-0.049826987,0.7613185,-0.42823032,0.17769937,-0.029691149,-0.17839432,-0.15629008,0.3418315,-0.14393233,0.8406332,-0.17258054,-0.5663367,-0.13220395,0.08998879,0.002499363,-0.16660525,-0.52944463,0.21800935,-0.022208596,-0.13471599,-0.22063147,0.05239126,-0.1042837,-0.16875948,-0.1588624,0.046722203,0.370093,0.00726461,-0.23274364,-0.07374821,0.7021695,-0.029839069,-0.16873907,0.12974209,0.38055557,-0.55527264,-0.32181075,0.33960754,-0.14759685,-0.006777453,-0.32568386,0.017728232,-0.27874178,0.08959804,-0.24741662,0.27894455,-0.10059721,-0.09487435,-0.083413266,-0.2754326,-0.61618936,-0.40435767,-0.38613078,-0.09401598,-1.0741923,0.65691483,0.07803916,-0.24007022,0.1831609,0.39938346,0.05003816,-0.068592966,0.23184374,-0.009237764,0.030698702,0.33829847,0.07012543,0.20387572,0.6267876,-0.3105422,-0.41598132,-0.44033107,-0.2633714,-0.3340496,0.00418692,-0.39038095,-0.62864435,-0.4044949,-0.21582028,0.20345718
hsa-miR-10525-3p,0.44092497,0.22594215,0.57143486,0.67143625,-0.007023288,-0.39036974,0.16652133,-0.10308737,0.03204181,-0.38153848,0.5049577,0.13035873,-0.41434175,0.034413926,0.012975514,-0.3292291,-0.5099842,-0.11865449,0.59302634,-0.3408516,-0.5295127,0.20361918,0.21637845,0.44260132,0.1732665,-0.06717416,-0.42686746,-0.030664586,0.25050676,-0.62382144,-0.01669416,-0.6377088,-0.15677857,0.1652756,-0.3356675,-0.12357949,-0.8291438,-0.16347197,-0.48142087,0.43079808,-0.2784874,0.2079524,-0.21230812,-0.054751743,0.13584888,0.54863054,-0.50867397,-0.3278889,0.6884514,0.34712556,0.001391158,0.983248,0.05502023,-0.1770025,1.2256225,0.85066193,-0.2893355,-0.5633807,-0.20177674,0.29368943,-0.2708193,0.8532741,0.5228303,-0.34058967,-0.35775688,0.056684006,0.5367987,0.47986668,0.24811351,-0.36200753,0.99269235,0.53940326,0.32111683,-0.1277201,-0.041807707,-0.20316492,0.19233623,0.56920975,0.098024346,0.20500056,0.3731254,0.48203543,0.21674861,-0.13523944,-0.3946783,0.4775273,-0.08820302,-0.13136089,-0.015147876,0.24243012,0.17018835,0.030465223,0.14314815,-0.16869412,-0.5883491,0.49285695,-0.69957745,-0.32156897,0.054930698,0.84501404,0.39988792,0.2885453,-1.2846303,0.37556258,0.633312,0.26478192,-0.020524804,0.30843642,-0.6765759,0.0847661,0.29717407,-0.72103745,0.14684859,-0.42237228,-0.26480666,0.75520414,0.52026904,0.31239673,0.09095571,0.044073038,-0.5613655,-0.31211403,0.014759362,-0.2912787,-0.58742684,-0.46850047,-0.16986431,0.49992695
hsa-miR-10526-3p,0.16495185,-0.27388358,-0.15496373,0.8104054,0.45232043,0.49051037,0.35705855,-0.6075446,0.093351245,0.51003647,-0.019910324,0.36266273,-0.82103163,0.038625013,0.06825045,0.2335769,-0.046675757,0.2553454,0.010309904,0.2817229,-0.012533492,0.53294706,1.1833546,-0.13186179,-0.05309289,-0.111891456,0.42012724,0.22188935,0.5614136,-0.27904046,-0.33448336,-0.14895584,-0.4925535,-0.37770796,-0.17400306,0.24216259,-0.053033113,0.5406071,-0.13861881,0.46436778,0.608711,0.055040944,0.30535144,-0.09134269,-0.42954406,0.75626576,-0.18446384,0.041502714,0.58284897,0.082936704,-0.11982464,-0.021250198,-0.33592635,0.069109395,0.4059199,-0.015330341,-0.18169537,0.16346791,-0.06117774,0.267008,-0.5101132,0.4938868,0.24425128,-0.050817735,-0.1863582,-0.049455233,-0.07617929,-0.23062378,-0.20979689,-0.064474665,0.25027624,-0.20315807,-0.03909322,0.09174485,0.32000953,-0.024733786,0.5974766,0.36549616,0.17758442,0.36117348,-0.0764453,-0.30669057,-0.45394355,-0.10013292,-0.52560335,0.17939256,-0.23845203,0.05658936,-0.2837186,-0.24712239,-0.5760777,-0.10872483,-0.28051695,-0.8483042,-0.2216123,0.2465024,0.14165984,-0.04692221,0.50697976,0.5149878,0.001999333,0.42069906,-0.14462398,0.16181232,0.53602946,0.04386112,0.002785391,-0.07652804,0.04341007,-0.32011035,-0.020765696,-0.15706974,0.12690623,-0.05972897,-0.3199401,-0.29272422,0.121095486,0.18235007,-0.21929981,-0.20623706,0.46078962,-0.38091022,0.25268883,-0.39690593,-0.62151676,-0.17252131,0.32735953,-0.4292124
hsa-miR-10527-5p,-0.2409023,0.5703949,0.43150556,0.51248664,-0.1526203,0.024556093,0.21098322,0.08869251,-0.4443229,0.3083034,-0.6239077,0.5208248,0.10311832,-0.37032497,0.60808957,-0.6441757,-0.24945536,-0.29001036,-0.15802868,0.15830271,-0.7374097,0.3178552,-0.08510095,-0.18114734,-0.36784706,-0.03326458,-0.22044088,-0.008775453,0.1436495,0.36358812,0.12657283,-0.008280232,0.15633117,0.3376372,0.031064296,0.16220689,0.17912753,0.006398202,0.013176493,0.42615634,0.30520335,-0.11480437,-0.2252157,-0.09291572,0.12168842,0.03326631,0.5256577,-0.11567247,0.7779987,0.42383358,-0.29047644,0.06498555,-0.05512184,-0.373797,0.15939584,-0.37553918,0.15371676,0.75136614,0.8970819,-0.033044405,-0.4979045,0.41321474,0.21472116,-0.25485873,0.011799356,0.06543572,-0.302383,0.001732788,-0.018543921,0.37311065,0.09863213,0.1108595,-0.32930583,0.27936321,0.095115416,0.116644524,0.33558312,0.08050259,0.08052519,-0.15191704,-0.17661427,0.3340526,0.004520467,-0.4769585,-0.17308289,0.29510185,0.16218181,-0.33347696,-0.27579632,0.29256108,0.7319902,0.23380284,-0.05750657,-0.33519498,-0.67134666,0.90276253,-0.622113,-0.33062217,0.2602085,-0.0979869,0.03301473,-0.010669893,-0.16176653,0.0729258,-0.052587066,-0.18434155,0.07424849,0.5425309,-0.056827933,-0.3330687,0.21745075,-0.3119404,-0.20518404,0.4597049,-0.48188862,0.0690075,-0.14805868,-0.16584012,0.13621643,0.02219438,0.26294088,-0.37142554,0.14337006,-0.3729347,0.1225221,-0.23056734,-0.33286715,-0.24743736
hsa-miR-106a-3p,-0.46480516,0.23832922,0.15857854,0.1556027,-0.00740478,-0.11108563,0.32730797,0.17549549,-0.006061449,0.12616044,-0.023729295,-0.24272011,0.27122,-0.1968953,-0.44470468,0.30377972,0.28659007,-0.0410891,-0.12573597,-0.31854284,0.07145566,0.11083669,-0.23149069,0.57380265,-0.25800183,0.20498309,0.08207275,0.020621499,0.41588956,0.10396181,-0.04054443,-0.29270533,0.0601989,-0.23059373,-0.22096811,0.62280357,-0.07160828,-0.26236698,-0.29718122,0.33423117,0.47736177,0.15157947,-0.07828515,0.33291915,0.046143506,-0.49479532,0.51368046,0.18686044,-0.18716264,0.031284805,-0.43526202,-0.06355145,0.057253636,0.08515281,-0.07237025,-0.28712523,0.5333435,0.66958266,0.31719115,-0.15391503,-0.3206841,-0.14045353,0.09956939,-0.4090546,-0.018021654,-0.21918657,0.15199214,-0.17112271,-0.19593896,-0.095134154,0.18801516,0.20577495,0.64977944,-0.016015345,-0.10715918,-0.2481096,0.33910665,0.3863688,0.18791114,0.30264902,-0.07513634,-0.3612164,0.25494066,-0.31809267,-0.33369672,-0.29282206,0.07887804,-0.12088004,-0.4801265,-0.308163,-0.11474917,0.002130526,-0.32993,0.18430813,-0.16511366,0.35347778,-0.11514261,0.021933677,-0.33698186,-0.28882307,0.44804025,-0.001866221,-0.40886843,0.28844565,0.22623232,-0.4503497,0.6642755,0.28648248,-0.021129277,0.14545372,0.015084552,0.20052354,-0.66764545,-0.13872088,-0.11713997,-0.049830064,0.28450954,0.06497812,-0.20206904,-0.3875664,0.20115674,-0.4013155,0.20002343,-0.43009397,-0.351773,0.0837269,0.23722371,0.06836943
hsa-miR-106a-5p,-0.52709764,0.3654258,0.081721246,0.3216286,0.24083038,-0.24368949,-0.071123056,-0.081073284,0.04505122,0.09204662,0.14649568,0.33654803,0.040728554,-0.16032049,0.12981613,0.09119389,-0.14200263,-0.46874735,-0.26382345,-0.35520115,-0.052623175,-0.2454541,-0.057506215,0.01570237,-0.27011716,0.41725126,0.22328833,0.21879813,0.17390354,-0.004824302,0.27316895,-0.34692606,-0.17770417,-0.21220642,0.092834614,0.047756333,0.25640678,-0.17628303,-0.06868456,-0.09050099,0.2049213,0.03785549,-0.5577236,0.06577188,-0.12851143,-0.40127456,0.78754365,0.21070135,0.3449405,0.31706682,-0.010110754,0.4364086,-0.5205767,0.3541638,-0.014272941,-0.2453284,0.42578363,0.40235248,0.45244953,0.098095104,-0.12082024,0.18142103,0.4105656,-0.20117067,-0.18456188,0.002099366,0.33886054,-0.29238936,-0.11977725,0.3426054,-0.18066506,0.1840397,-0.12477426,-0.38607404,0.28094912,-0.103377156,0.26772457,0.5613314,0.17786756,-0.034658376,0.0243507,-0.012019244,-0.45078492,-0.3388115,0.08023283,-0.07008481,-0.2150359,-0.019788256,-0.6188122,-0.115560606,0.17730327,-0.24052775,0.0853895,0.30487275,-0.061700627,0.026196254,0.12257608,0.082099766,0.03361993,-0.10275046,0.21262014,0.01754559,-0.4437239,0.19124876,-0.10029441,-0.12745024,0.59207815,-0.23766196,-0.059021425,-0.127028,0.30194807,-0.51489353,0.14151333,-0.063714914,0.0766962,-0.104231186,-0.15410478,0.27243507,-0.07262141,-0.09133619,7.48E-05,-0.09919718,0.20146161,-0.16709408,-0.27133498,0.17061661,0.6391171,-0.115684904
hsa-miR-106b-3p,0.06919432,0.21007991,0.53070575,0.15297167,-0.014117161,-0.14326425,0.12492227,0.17315273,0.08882121,-0.11631657,-0.5024518,0.111299306,0.09324413,0.08416326,0.005285864,-0.06592736,-0.09283784,0.040913314,-0.18518172,0.24614954,-0.11128524,-0.015153004,0.3039874,0.36711133,-0.4235968,0.07995941,0.20201108,-0.14679332,0.30647662,-0.027024925,-0.083995886,-0.6205082,-0.017209824,-0.020057732,0.3431105,0.06098678,0.24351619,0.3539163,0.2421109,-0.001538857,-0.04338513,-0.2523467,-0.0503933,-0.28456667,-0.50246125,-0.28566304,0.8732892,0.27139175,-0.16691482,0.30029103,-0.1427,0.17675707,-0.16896108,0.3226774,-0.01713847,-0.19147824,0.5437776,0.37267587,-0.023309136,-0.19337629,-0.53476816,0.08839751,-0.11746503,-0.051812347,-0.39344156,0.5663839,0.19862875,-0.13841616,0.27254164,0.4646246,0.060010888,0.006394118,0.31003127,0.25414962,-0.2263501,-0.15566123,0.19484545,0.66789484,0.09350957,0.26522952,0.123620234,0.13930514,-0.41376913,-0.15326336,-0.018072847,-0.26069602,-0.25493222,-0.023070302,-0.35294622,-0.019269673,0.39916804,-0.31842238,0.5420117,-0.25874862,-0.040024146,0.16708136,-0.1040303,-0.20147005,-0.15330784,-0.13886161,0.24563043,0.16159582,-0.262473,0.23905592,-0.15115441,-0.0911154,0.41683692,-0.28651214,0.1375691,0.044972703,-0.17091025,-0.2961119,-0.013007878,-0.37669104,0.08937013,0.0684805,0.24016307,0.28063944,0.018184828,-0.36504978,-0.21866177,-0.465817,0.27596453,0.068748035,0.051304936,0.23329899,0.33885038,0.2095782
hsa-miR-106b-5p,0.026830798,0.16376844,0.2524883,0.2600189,0.5065592,-0.13584189,-0.018660964,0.20408607,-0.51295745,-0.19226225,-0.34350738,0.16985326,-0.30130365,0.31182313,-0.2742891,0.40988803,-0.4786333,0.04228425,-0.084244944,0.21547696,-0.26553684,0.19518703,0.010664189,0.10809178,-0.012107609,0.03554226,0.017537495,0.15577729,0.1905595,0.13314822,0.048336644,-0.51591545,0.12048637,-0.2181203,0.1314109,0.41810614,0.028695207,0.2210403,-0.29650685,-0.16929157,0.01976529,0.20569551,-0.28147897,0.015326033,0.03379609,-0.35569954,0.7078322,0.27326512,0.37763175,0.3336106,0.22595787,0.12775065,-0.40451995,-0.16868055,-0.013532154,0.21280792,0.34840024,-0.15130642,0.23766701,-0.0962322,0.083698876,0.1110926,-0.14398105,0.11230024,-0.014247661,0.2254559,-0.020472556,-0.24909084,0.2996822,0.5710722,-0.030439135,0.47258508,0.3480642,0.43662137,-0.33297944,-0.29288727,-0.5788972,0.39401272,0.1966484,-0.42982522,0.06485022,-0.21368545,0.33356062,-0.3253985,-0.5012569,-0.44105512,0.016693633,-0.15743531,-0.47290808,-0.23394862,0.22660795,-0.39765662,0.23389784,0.077185094,-0.016632529,0.4197292,-0.33766133,-0.44245693,-0.0778533,-0.4872303,0.6025034,0.06478444,-0.74967396,-0.048590213,0.5073033,-0.009613914,0.38937736,0.21771365,0.32005748,-0.34741724,-0.42021656,-0.40246055,-0.034155402,0.13190563,0.06873599,0.08883742,-0.04866807,-0.10414398,-0.077016614,-0.2695262,0.14360471,-0.016440956,0.13784711,0.30346197,-0.14564438,0.12232524,0.6750195,0.14741766
hsa-miR-107,-0.34623596,0.27963573,0.1556767,0.2051424,0.17885646,0.006835956,-0.36962467,-0.046031054,-0.3573687,0.33601165,-0.10597707,-0.10689761,-0.35223,0.3299888,0.17349799,-0.08124667,0.40385368,-0.117755644,-0.08589661,-0.15612137,-0.058493905,0.17908965,-0.15740392,0.06589857,-0.002498911,-0.2947014,0.47594702,0.48367822,-0.04657414,-0.24001437,0.12586255,-0.17239438,-0.48164597,-0.1291571,-0.053044096,0.14811665,0.40000606,-0.1895645,-0.13560458,0.12602693,0.18381901,0.051892463,-0.08719975,0.047324248,0.1419141,-0.2876572,0.37235934,-0.108006336,0.3992535,0.2235942,-0.06209176,0.31076872,-0.06381715,0.15574355,-0.2092853,0.26501045,-0.08888664,0.15394989,-0.14586702,0.02894551,0.015194811,0.2339607,0.15968047,-0.5009322,-0.2016889,0.06524965,0.107331775,0.07580142,0.23704135,0.11662168,0.18322848,0.1655641,-0.16525805,0.15562092,0.29478085,-0.38304034,0.16245064,0.33281985,-0.26126355,0.3055337,0.170779,0.14303988,0.43337765,-0.21012859,-0.118030585,0.05712678,0.26944152,-0.017159123,0.06895382,-0.24637865,-0.031361178,0.10483495,0.10249617,-0.1161492,0.12338553,0.011075724,-0.06540782,0.20134895,-0.012470849,0.15453705,0.1549356,0.01920943,-0.5098312,0.7105603,0.22263493,-0.006701254,0.3739689,0.43950424,-0.37803116,-0.32265896,0.09924485,0.019606827,0.17961998,-0.08768545,-0.54080266,-0.22748134,0.27356234,-0.18173195,-0.04414031,0.043536734,0.04191019,-0.110480286,0.2951307,0.052051235,0.09780426,-0.25363922,0.30374882,0.04000611
hsa-miR-10a-3p,0.12378485,0.23611465,0.46576616,0.26285216,-0.07427419,-0.12320677,0.040880535,-0.026449084,-0.21389644,-0.14740929,-0.18098909,0.10912198,0.5447786,0.21339977,-0.06734291,-0.24074805,0.1206663,0.1770511,0.033310205,0.09422355,0.45622754,0.17335819,0.24962002,0.16895412,-0.22549602,0.5623281,-0.4721142,-0.14286779,0.28452918,-0.3856715,0.21131319,-0.42639813,-0.02008534,0.3060343,-0.40158826,0.42129606,0.1537798,0.44830802,-0.15880628,0.8670251,0.49399757,0.1532695,-1.0541452,0.12435703,-0.19921665,-0.020256318,0.14560509,0.04812652,0.49732098,0.037110876,-0.561338,-0.15122706,0.30723342,0.4256389,0.08603628,0.33060226,0.11369179,0.06339343,-0.10140271,-0.05392913,-0.33996597,0.19576924,0.24410102,0.16974919,0.07277353,-0.26268363,0.3981256,0.045787632,-0.37855935,0.3384522,0.21546951,0.36077237,0.00164691,0.17017262,0.011284806,-0.21784858,0.43896028,0.38202232,-0.119917065,0.15736228,-0.15829468,0.2663415,-0.25493127,-0.48087665,0.009821848,-0.08992934,0.4941571,0.17232463,-0.14965078,0.06484671,-0.19395079,-0.15698814,-0.4314262,0.018401159,-0.5000127,0.25919652,-0.21486048,0.37115338,-0.3850628,-0.28346285,-0.17358445,0.06306373,0.13067111,0.06534524,0.15826413,-0.028253524,0.56127053,0.5051197,0.12816449,0.3076833,0.20615143,-0.10524065,-0.3320648,-0.123194374,-0.013477924,-0.05548209,0.23967688,0.38182572,0.0955971,0.17373534,0.023916485,0.069647275,-0.05799158,-0.51270854,-0.39475018,-0.33920932,-0.48922944,0.23198183
hsa-miR-10a-5p,0.052190054,0.47971177,0.5607242,0.06300895,0.43355834,-0.09772078,0.000176916,-0.14335783,-0.067139864,-0.40928414,-0.347438,0.12629306,-0.086708315,0.11454517,0.093331434,-0.14006828,0.45400026,0.1148412,-0.20213053,0.5721591,0.12136944,-0.094600424,-0.09596756,0.6066449,-0.12891042,0.22203515,-0.11571524,-0.07562303,0.19810078,-0.30583638,0.13387899,-0.29118657,-0.11207152,-0.48954675,-0.35750064,0.47293967,0.29608488,0.3240862,-0.59849554,0.015864637,0.030073252,0.020971484,-0.37651104,0.30043894,-0.042833284,0.32122988,-0.08090338,0.3307769,0.36011037,0.045796465,-0.28904387,0.3452164,-0.20449205,-0.15213919,-0.024126522,-0.005160065,0.580182,0.015605179,0.12537977,-0.059102595,-0.33108863,0.3942324,0.07831037,-0.26954487,0.28699532,0.038704824,-0.06728737,-0.40205452,-0.5181461,-0.00495239,-0.1557528,0.451249,-0.48262984,0.3938195,-0.3845703,-0.14886305,0.043290175,0.454492,-0.12780216,-0.09816671,-0.058209628,-0.20611428,-0.20260017,-0.47809085,0.10845205,0.06902324,0.3628476,0.07980111,-0.04045626,-0.21113664,0.19785254,-0.67720824,-0.081855014,0.34640655,-0.27797332,0.4372703,-0.15948774,-0.29856333,-0.34085935,0.21413606,-0.17283435,0.18676251,-0.5406323,0.28491685,0.012167185,-0.020054506,0.43402746,0.44020668,0.24388477,-0.053036634,0.27608803,-0.2883423,0.03933298,0.25329813,-0.3574559,-0.02317038,0.16904758,-0.06633727,-0.45034397,-0.5077112,0.030600669,-0.29040554,-0.19701739,0.19982174,-0.21055731,0.16634981,0.08681973,0.21906778
hsa-miR-10b-3p,-0.04797346,-0.086273864,0.50187373,0.55128175,0.2970666,-0.05318533,0.20680653,-0.2454742,0.21469693,0.67939353,-0.31157973,0.6668912,-0.1444263,0.25158757,0.3142933,0.048253685,-0.23992719,-0.031761326,0.2832654,-0.94510394,-0.24089098,0.19128816,0.5984576,0.48239863,-0.48494792,0.27953294,0.07575691,-0.1518993,0.39929253,0.23927344,0.5964404,-0.1738649,0.31295,-0.49711964,-0.44229057,0.006202836,-0.104203254,-0.24878551,-0.3652265,0.44166452,0.13430385,0.015243305,-0.14117539,-0.02235805,0.043189805,-0.06288505,-0.14862005,0.20054264,0.337392,0.114183605,0.18349332,-0.060478423,-0.5716898,-0.44503522,-0.13825127,-0.034771476,0.21750252,0.12646297,0.10579474,-0.081243575,-0.20479715,0.05691403,0.1527214,0.15307939,0.117238924,0.22335902,-0.10681414,0.06589414,-0.4903638,-0.15193726,0.40482765,0.3374268,0.46526852,0.029162506,-0.49734473,-0.31466705,0.07060636,0.12765986,0.36244756,-0.5442028,0.62822306,0.25451145,-0.3399162,-0.17418008,-0.02273442,-0.033295304,-0.0316049,0.019363066,0.1675226,0.24991587,0.044038244,-0.30277574,0.030098645,0.29823482,-0.111896545,0.23813327,-0.37193203,-0.24905579,-0.4711596,-0.17846774,0.08853545,-0.2099182,0.36612102,0.21492316,0.37827352,-0.1259373,0.34577405,-0.28421435,-0.3436817,-0.37152264,0.05106508,-0.29599363,-0.061888464,-0.23545587,0.049710233,-0.15637456,-0.37599573,-0.18125041,0.42488745,0.2939182,-0.26131698,0.04630158,0.09918227,-0.15808457,-0.44979912,0.067018285,0.371546,-0.08002994
hsa-miR-10b-5p,0.17264092,0.2241552,0.17191899,-0.024805047,0.20589425,-0.37957233,0.1622524,-0.022224389,-0.06287349,-0.002584803,-0.2701743,0.1768282,-0.18011357,-0.04992488,0.000393183,-0.13223983,-0.057754803,-0.03906081,-0.33823436,0.21042742,-0.07819223,0.25154683,0.0794369,0.350039,-0.42550945,0.22148818,0.08141214,-0.29145634,-0.2618903,-0.57061195,0.1329173,-0.48178187,-0.22945201,0.15639077,0.03184919,0.42794913,0.69832754,0.56931555,-0.0336227,0.4563247,0.44153172,0.08669282,-0.83781254,0.5106637,-0.060069703,0.09862616,-0.093857534,0.053780485,0.24525054,0.30948535,0.2062427,0.34724122,-0.021011582,-0.045204755,0.18531488,-0.044763975,0.4431029,0.09165376,0.13397017,-0.14399505,-0.4406824,-0.16197878,0.06404233,0.2709359,0.21154639,-0.36417475,0.4486228,0.22733663,-0.20192398,0.40072048,0.1201784,0.35930064,0.18422453,-0.08138389,-0.003802221,0.45760375,0.11401601,-0.11424355,-0.04272198,0.017461458,0.5639304,0.186463,0.059644613,0.049132094,0.22172438,-0.008257167,0.6304335,0.042574048,0.078667425,-0.28630182,0.6951177,-0.5275916,0.24756546,-0.17415372,0.058777135,0.30216005,0.12294561,0.003256441,-0.42496723,-0.09623928,0.39638466,-0.47101232,-0.34442112,-0.10595349,0.50063044,0.08036581,0.25335312,0.3133813,0.48626232,-0.46176055,0.21585295,-0.03755636,-0.31644797,-0.2162816,-0.29358736,0.16446197,-0.20860805,-0.68049085,0.094325334,0.16362394,-0.5198626,0.17827934,0.043380693,-0.7795362,-0.21790469,-0.10618093,-0.023678035,0.4807272
hsa-miR-11181-3p,-0.116811424,0.071267426,0.006903513,0.08532502,0.12225018,0.12790462,-0.25586426,-0.028399613,-0.33943415,0.17876732,-0.7995099,0.39028922,0.038198836,0.10416394,0.09894052,-0.055977557,0.016834976,0.26670134,-0.08482728,-0.26132613,0.01704729,0.4866737,-0.0935148,0.08542892,-0.04742158,-0.062318668,0.51497364,0.43151346,1.0583324,-0.06623033,0.24374619,-0.5100795,0.05065036,-0.523426,-0.219002,0.06151144,-0.12383974,-0.4987029,0.32958698,0.5016683,0.048484363,0.6057681,-0.1343252,-0.18167037,0.1695649,-0.5410725,0.72771746,0.09742977,0.5361545,0.42842185,0.3951874,-0.33269376,-0.30216613,-0.084584236,-0.014611422,0.015519038,-0.31007797,0.93178755,-0.23528713,0.04498634,0.17604552,0.25452325,0.25338322,0.13397852,-0.6291418,-0.033008296,0.099046305,-0.10639252,0.21509454,0.5806703,0.61991006,0.09537487,-0.26962823,0.5376536,0.2599674,-0.002256327,0.22105372,-0.078447185,0.27677262,0.47313648,0.25572696,-0.10608977,0.22841622,0.03867023,-0.39343336,0.46376902,-0.065856256,-0.03361151,-0.54001063,0.017863763,0.021747174,0.09926579,-0.027670354,-0.14101996,-0.15146436,0.51193863,0.21018724,-0.4375889,0.27614227,-0.38325298,0.1406303,0.06802252,-0.67651504,0.45748016,0.045949794,-0.727904,-0.1772706,0.056882616,0.06311127,-0.22433093,0.07489564,-0.08196368,-0.025807828,0.29311332,0.23691048,0.14085779,-0.047924012,-0.40576482,0.19168106,-0.11794904,0.12768348,-0.20245147,-0.057097077,-0.6448866,-0.15976378,-0.37379923,0.30055898,-0.22554708
hsa-miR-11181-5p,0.3564486,0.12762675,-0.23624447,0.7809618,0.052042667,-0.027522057,-0.29103613,0.45693243,-0.27622008,-0.005779502,0.010726208,0.53151053,-0.25313294,-0.2646606,0.3480118,0.29259768,-0.27172175,0.09018331,0.04139853,0.27323604,0.12680745,-0.41973186,-0.24326234,-0.5498291,0.13103373,0.08843599,0.1421792,0.21319215,0.117546566,0.10126479,-0.06407509,0.3551681,0.43077034,0.16261223,-0.5935031,-0.23651542,-0.3604874,0.18622091,-0.33546063,0.101233914,0.28518054,0.50460464,-0.028340744,0.107531995,-0.24720393,0.0752095,0.22838914,-0.3335288,-0.2719836,-0.16688432,-0.28294045,0.042710714,-0.5320634,0.30161372,0.13573156,-0.33282554,0.03629763,0.40307012,0.22186588,0.30050835,-0.001864694,0.015368855,-0.16227457,0.30209917,-0.61561936,-0.41464365,-0.0240742,-0.16030802,-0.42882848,0.15921165,-0.07810116,0.07775476,0.014805557,-0.26610973,-0.02673691,-0.52267915,0.27877843,0.45970306,0.22792017,0.36401442,-0.20797995,0.31888673,-0.056599863,0.041956093,0.2876626,-0.055987667,0.31595108,-0.2775292,-0.5365912,-0.26535082,-0.13061574,-0.13725333,0.22142537,-0.14676268,0.002051496,0.7911303,-0.33951876,-0.14135061,0.21266021,-0.106527835,0.15024951,-0.0091925,-0.6475872,-0.20769478,0.30398303,0.015089256,0.07750736,0.35253036,-0.14047025,0.08863961,0.09714633,0.32999638,0.096065775,-0.022053715,-0.36597684,0.2327314,0.09057897,0.56824374,-0.21993339,-0.22556531,0.1270891,0.3596776,-0.036533847,-0.76269346,-0.30998522,0.43398374,-0.32175434,-0.129421
hsa-miR-11400,-0.35994843,0.087471984,0.18308547,-0.079474874,0.358218,0.94902194,0.9740434,-0.51483816,0.19071247,-0.28131118,-0.22098687,1.1274482,-0.06726227,-0.46570942,0.17833439,-0.33611637,-0.22524959,0.74916124,0.60497844,-0.6959811,-0.061373457,0.9834059,0.05907401,0.13204382,-0.16671264,0.48664212,0.2763243,0.1407781,0.7997537,0.046752203,0.53756034,-1.1690644,0.012947941,0.6335944,0.002879607,-0.14229256,1.0456802,0.015350964,0.040412944,-0.3684874,-0.043432426,0.15036045,-0.50665116,0.33377,0.32428542,0.4246443,0.8926843,0.79481137,0.13203526,-0.37854597,-0.8337143,0.16767806,-1.0322634,0.45349783,0.3310693,0.026915122,-0.57087713,0.6792526,-0.17634022,0.05560031,0.25976768,0.48858783,0.6279605,-0.4620328,0.002512221,-0.696017,-0.22701076,0.5398588,-0.4754966,-0.1612629,0.3442822,-0.6386244,0.17525233,0.027740195,-0.5370035,-0.21579583,0.05648756,0.46779883,0.5090064,0.05013559,-0.7298467,0.19871195,-0.30851272,-0.5983469,-0.37401536,-0.6696685,-0.120529935,-0.047714923,-0.074497245,-0.3199913,-0.41710308,-1.4315219,-0.7927469,0.30940503,-0.031439297,0.17495961,-0.6314868,0.46822318,-0.78527063,-0.8577338,0.34538266,0.18036188,0.16456848,0.38104895,0.25143036,-0.18891673,-0.38416255,0.14979148,0.45580637,-0.5578595,0.5094386,-0.4236771,-0.29194337,0.009934234,-0.32926178,0.033429462,0.27933806,-0.39181885,-0.23557466,-0.27815,0.07232271,-0.13797154,-0.44582397,-0.66090286,-0.7721763,0.600874,-0.13993782,-0.061249156
hsa-miR-11401,0.4614733,0.6077445,0.257346,-0.14484727,-0.051181294,-0.20951608,0.34474456,0.22291681,0.09208621,-0.34766036,-0.027586158,-0.038349666,0.5151978,0.18264042,0.15889089,0.100449756,0.37873352,-0.09200518,-0.02148001,-0.002606745,-0.86302763,0.39187062,0.18886217,0.093905024,0.25362995,0.24085662,0.12355847,0.15143836,-0.4289923,-0.08175003,-0.21594301,-0.3936901,0.11530548,-0.11188398,-0.07514629,-0.098444596,0.02156052,-0.009085366,-0.36745062,-0.011960652,0.32357633,0.42236638,-0.36732578,-0.2761861,0.1574473,-0.8749976,-0.015536765,0.3884567,-0.1159257,0.032607183,0.062461577,0.23192824,-0.04386855,-0.13848075,0.47750944,-0.48364308,0.47321463,0.0326123,0.79013914,0.28479633,0.18647708,-0.02170696,0.19083847,0.10076637,-0.0449923,-0.9148444,-0.15313365,-0.019595083,-0.3509535,-0.08739247,0.12106688,0.28611815,-0.21388045,0.45347977,-0.014214247,-0.36497816,0.8409112,0.65286267,0.1652741,-0.014048893,0.37942755,0.008812072,-0.20698158,-0.032654166,-0.31718624,-0.077743046,0.00410011,0.053487882,-0.56851196,-0.11762623,0.017077914,-0.02894597,-0.14509666,0.17772907,0.07646706,0.3191473,-0.18183267,0.010290428,-0.10435016,-0.3305428,-0.4101335,0.60746855,-0.10836873,0.28597704,0.2856806,0.22202058,0.35454416,0.018265782,-0.3192432,-0.36400387,-0.44294387,-0.101393156,-0.16345772,0.14558472,-0.035544455,0.35297325,-0.19928978,-0.08227716,0.13428684,-0.2531193,-1.0675372,-0.33403388,-0.14165634,-0.20371512,-0.33302385,0.05532976,-0.17291376,-0.3446523
hsa-miR-1178-3p,-0.1346468,0.658683,-0.18466151,0.17346933,-0.13296893,0.055812187,0.656132,0.17785451,-0.2077562,0.002447657,0.0743189,0.066369526,-0.3053754,0.5873343,-0.06502198,0.34867024,-0.3957932,-0.5496499,0.13130808,-0.30064037,-0.40977144,-0.022754565,0.1520816,0.025834054,-0.23187584,0.31841215,-0.15831992,-0.3110134,0.5736055,0.08224498,0.12748843,0.057555854,-0.05662334,-0.2137518,0.28238282,0.27611625,0.23614055,0.29702428,-0.035696838,0.15852748,-0.20828289,-0.5267885,0.20516773,-0.18938313,-0.003502865,-0.040009975,-0.15894677,0.13374233,-0.059130568,0.07992154,0.062206104,-0.100457154,-0.7440488,0.68338734,0.253042,0.29101917,-0.38290688,-0.005450618,0.06228493,0.23625585,-0.28601685,0.3549345,0.122353375,-0.47126496,-0.78623194,-0.60998625,-0.060591593,0.07115837,-0.22522777,0.31314388,-0.031931527,0.36785445,0.061529987,-0.092678964,-0.47543928,-0.07056921,-0.3514844,-0.053430878,0.75548613,0.19744779,-0.07494213,-0.31251714,0.2564374,0.03574718,-0.22780085,0.0782971,0.11719747,0.31989443,0.056226976,-0.16004948,-0.09623721,-0.45908442,-0.57130045,-0.16187868,0.27942923,0.09999643,-0.05577553,0.18088335,-0.37970415,-0.049797587,-0.06226192,0.21859415,-0.045513496,-0.12666501,0.13677736,-0.17411357,-0.29009795,0.013275376,0.10449437,-0.26268548,-0.10596478,-0.7064744,0.37138963,-1.2086853,-0.0702349,0.49376008,-0.04481595,-0.31479785,-0.28466883,-0.54459816,-0.40900072,-0.24597104,0.60881597,0.0896083,-0.4084842,0.41300207,-0.5757623,-0.06560896
hsa-miR-1178-5p,0.32202035,0.46223894,0.31522152,0.36898363,0.72169626,-0.66544867,-0.0352391,-0.92883104,-0.16662677,-0.06930496,-0.5129963,-0.29935887,-0.35705605,0.21797054,-0.22857589,0.57199526,0.33765393,0.05437198,0.13234307,0.35261074,-0.34769416,0.29329395,0.39874083,-0.74079835,-0.2249658,0.39642844,-0.4768331,0.05020584,0.15538752,-0.47467232,-0.26895452,0.45051062,-0.2301527,-0.4355147,0.06801064,-0.11557719,-0.2542877,0.2902098,0.09619372,-0.10720791,0.16322017,0.67611533,0.7045704,0.01727035,-0.3337099,0.43795776,-0.084062405,-0.5935493,0.25498217,0.27107325,-0.65337837,0.32168287,-0.20197119,-0.08454387,0.005323405,0.09630013,0.36244547,0.17249992,-0.3036845,-0.28363314,0.2550636,0.6128036,-0.3653237,-0.13070598,-0.38959232,0.24784209,0.5874958,-0.08092603,-0.031160923,0.18263851,0.017399251,0.7819822,0.2592572,0.20325075,-0.20197433,-0.04889349,0.3391632,-0.13390788,0.004536127,-0.14425345,0.44741163,-0.008052646,-0.017204886,0.16281164,0.8904096,0.4422522,0.07051216,-0.5352596,0.07844969,0.12767003,0.056757264,-0.1866483,0.25149065,0.40174058,0.010074886,0.63568014,0.07307275,0.008625157,-0.13672543,0.5404033,-0.75155056,-0.04592282,0.48412982,0.7531,0.4413006,-0.02527247,-0.6315677,0.06914955,0.12644318,0.30577126,0.497751,0.016045593,-0.6093579,0.12475495,-0.28721434,-0.14341402,0.3305108,0.43265405,0.018720204,0.38218033,-0.69914466,-0.6003371,0.07652931,0.253029,-0.72424096,-0.45369396,-0.1383783,-0.24277432
hsa-miR-1179,-0.36029154,0.44985458,0.28477603,-0.2621309,-0.036654282,0.08947658,0.07927113,-0.13046242,0.39357767,-0.08690454,-0.31980994,0.5152695,-0.002596602,0.39077672,0.38205785,-0.1448792,0.004300822,0.34453085,0.4701498,-0.16000623,-0.21278296,-0.40657267,-0.2885728,0.23974879,0.3347876,0.11119949,0.13439569,-0.08516698,-0.2406454,0.15783878,0.20485356,0.088966794,0.7479803,-0.3598807,0.11664884,0.27646035,-0.011877367,0.057357006,-0.18747486,-0.58119833,-0.30875197,0.034486495,-0.1290447,-0.46777087,0.4398278,-0.40750358,0.2224781,-0.07054174,0.10570902,-0.7043295,0.003460918,0.33087313,0.06725209,0.49864063,-0.36789426,-0.84363073,0.33224797,0.09749148,-0.4281242,-0.0648032,-0.0662882,0.49375644,-0.48531964,-0.6263036,-0.19794312,-0.17171335,-0.14942017,0.07500324,0.23311906,-0.2416607,0.036245346,0.050194774,0.14139034,-0.71557134,-0.27867916,-0.39204192,-0.31008777,0.26121825,0.20608181,0.4916028,-0.3534035,-0.18549655,-0.5686604,0.24940537,-0.1715884,0.29971832,0.19822083,0.048363578,-0.5347124,0.20824008,-0.07524166,0.119262666,0.0483348,-0.13263492,0.18625923,0.12752753,-0.18937159,-0.010819349,-0.06089381,-0.39044207,-0.17069961,0.40314555,-0.1560521,0.27205482,-0.29922348,0.36474997,-0.15711668,0.07159452,-0.1352128,-0.22576073,0.3755235,-0.60273033,-0.045910995,-0.11024563,-0.44106764,-0.014632974,0.32177123,0.36639014,0.18340437,-0.11571145,-0.66642016,-0.7391944,0.2590225,0.6278304,-0.61988664,0.31246716,0.10932471,0.32101104
hsa-miR-1180-3p,0.11066151,0.52675164,0.39409298,-0.46989912,0.50844157,-0.8304719,-0.14759813,-0.13064109,-0.5394,0.078239344,-0.14111988,0.04196267,-0.47331035,0.23319775,-0.16378416,-0.38370833,-0.5137667,-0.19237107,-0.13951136,0.5473091,0.2873458,0.2591872,-0.039720733,0.4986674,-0.06676226,-0.40197244,-0.2923977,0.7340476,-0.04714218,0.7578842,0.105560616,0.26810947,0.1070286,0.044533577,-0.14966568,0.26883128,0.042248137,0.29681623,-0.084422335,-0.25547656,-0.32332793,-0.16107516,-0.55608624,0.030347502,0.27743924,0.012011142,0.23184913,0.40299433,0.31296805,0.31756014,-0.28445137,-0.2840035,0.3486211,0.61541873,-0.3665822,-0.07409311,0.95876825,0.21110275,0.056825977,-0.091258734,-0.34450567,0.064347506,0.06483925,-0.093593955,-0.25666878,0.108291216,-0.15508674,-0.30566892,0.1345211,0.5143513,-0.014791181,0.08299349,-0.26347753,-0.48174384,0.097954676,0.42715067,0.6541039,0.10770075,-0.20087457,-0.03776507,0.08911193,-0.26731098,-0.63969606,0.20336479,-0.111247756,0.18409927,0.2738705,-0.24716212,-0.54593766,-0.18797547,-0.2234114,-0.5903806,-0.49730095,-0.09160213,0.11270971,-0.26497856,-0.20592237,0.20266955,-0.37816194,-0.9075679,-0.20462948,-0.6251486,0.7074053,0.12763731,-0.2030401,-0.08017273,-0.402766,-0.42047602,0.014449738,-0.1588673,0.28052422,0.14546333,-0.2145747,-0.8124366,0.27322906,0.07116652,0.35098246,0.049666286,0.26762033,0.02054113,-0.59793514,0.13262433,0.102630354,0.019284317,-0.5742121,0.25873545,0.38774443,0.33445632
hsa-miR-1180-5p,-0.15941283,0.22493187,0.6701274,-0.4436498,0.21044685,0.19561549,0.2845413,-0.5215472,-0.22144152,-0.46294218,0.14411643,-0.017108764,-0.35640043,0.16664529,-0.7143355,-0.17997022,-0.18691608,0.044817727,0.17266491,-0.04660681,0.061576426,0.7719989,-0.6701462,0.3901039,-0.39035884,-0.479427,-0.33151802,0.20719136,0.18127023,0.6062466,0.08095045,0.28697404,-0.44709536,-0.29555026,0.07614018,0.46951535,0.27547902,0.28206974,-0.5086126,0.2342299,-0.21444857,0.18196262,-0.37147158,0.50255907,0.48176572,-0.5698576,0.7916414,0.41025236,0.4391233,0.010634953,0.54638684,0.084110335,0.13296543,0.05827969,0.14799392,-0.2717138,0.13233101,-0.09381104,0.27015194,-0.32569033,-0.018208131,-0.50373214,0.19201724,-0.34569323,0.14362553,0.12547445,0.046797983,-0.20140947,0.3887439,-0.09638577,0.45049095,0.47185838,0.14568707,-0.49324062,-0.084086284,-0.14136802,-0.4487396,0.56155163,0.6945621,-0.108094424,-0.021496095,-0.4730739,-0.06771445,-0.28890198,0.47163957,0.4190336,0.860557,-0.07743848,0.40082926,-0.489722,0.4822003,0.121781155,-0.791563,0.10316289,-0.024379767,0.08175114,-0.16310143,0.1029135,-0.04461045,-0.5816079,-0.015516643,0.014628071,0.44241658,-0.0688153,0.7733074,-0.42748466,0.15245867,0.11533665,0.53898406,-0.19871113,0.091773115,-0.80196065,-0.16884694,-0.61078334,-0.446567,-0.048048258,0.87211084,-0.17757416,0.003275447,0.90150064,-0.11403703,-0.2839889,0.02812218,-0.18177336,-0.123202816,-0.25661665,0.30221227,-0.07709969
